export const weights = {
  "embedding.weight": [
    [
      -0.188, 0.016, -0.013, -0.186, -0.15, 0.217, -0.15, -0.068, 0.053, -0.202,
      0.386, 0.359, -0.156, -0.11, 0.26, -0.473, 0.143, 0.073, 0.173, -0.154,
      -0.119, 0.182, 0.149, -0.193, -0.438, 0.311, 0.078, -0.236, 0.021, -0.292,
      -0.223, 0.293, -0.078, -0.007, 0.007, 0.035, -0.137, -0.341, 0.205, -0.1,
      0.129, 0.015, -0.137, -0.088, -0.165, 0.088, -0.017, -0.33, 0.063, 0.226,
      -0.01, -0.094, -0.039, -0.017, -0.16, -0.242, -0.209, 0.175, -0.005,
      0.028, 0.26, 0.26, -0.304, -0.027, -0.174, 0.12, 0.02, -0.271, 0.056,
      0.349, -0.023, -0.272, 0.206, 0.347, -0.136, 0.151, -0.226, 0.123, 0.073,
      -0.153, -0.178, 0.062, -0.119, -0.126,
    ],
    [
      0.251, -0.053, 0.444, -0.399, 0.001, -0.616, -0.271, -0.289, 0.008,
      -0.588, 0.34, 0.075, -0.045, 0.181, -0.319, -0.172, -0.528, 0.436, -0.07,
      -0.108, -0.009, -0.215, 0.286, -0.389, 0.185, 0.122, -0.075, -0.265,
      -0.275, 0.43, 0.086, 0.416, -0.121, -0.613, 0.494, 0.096, -0.076, -0.422,
      -0.221, -0.433, -0.458, -0.015, 0.185, -0.115, 0.453, -0.208, 0.215,
      -0.331, -0.028, 0.025, 0.36, -0.151, 0.118, -0.053, -0.173, -0.111, 0.308,
      0.189, -0.4, 0.059, -0.382, 0.056, 0.076, 0.072, -0.225, -0.198, 0.317,
      -0.292, 0.456, -0.07, -0.068, -0.258, 0.311, -0.102, 0.225, 0.199, -0.254,
      0.163, 0.202, -0.204, -0.185, -0.285, 0.144, -0.376,
    ],
    [
      0.313, -0.405, 0.415, 0.369, 0.182, 0.26, 0.405, -0.252, 0.127, -0.146,
      -0.364, 0.355, 0.063, 0.574, 0.54, -0.094, -0.159, 0.147, 0.089, -0.088,
      0.069, 0.361, 0.102, -0.201, -0.16, -0.144, -0.548, -0.461, 0.68, 0.196,
      0.17, -0.176, 0.207, -0.199, -0.314, -0.264, 0.396, -0.02, -0.565, 0.452,
      0.033, -0.54, -0.657, -0.058, -0.151, 0.032, 0.303, 0.41, 0.212, -0.235,
      0.339, 0.219, -0.338, 0.308, 0.484, 0.276, -0.318, -0.519, -0.224, 0.154,
      0.323, -0.552, -0.357, -0.273, 0.547, 0.034, 0.317, 0.779, -0.243, 0.16,
      -0.554, -0.489, 0.135, 0.175, 0.112, 0.493, -0.143, -0.374, -0.236,
      -0.168, 0.375, 0.105, -0.536, 0.277,
    ],
    [
      -0.435, -0.395, -0.227, -0.041, 0.355, 0.18, -0.272, 0.366, -0.203,
      -0.048, -0.27, 0.017, 0.163, -0.275, 0.675, -0.038, -0.161, -0.326, -0.19,
      0.506, -0.02, 0.69, 0.298, 0.517, 0.3, 0.088, -0.411, -0.35, -0.135,
      -0.008, -0.252, -0.291, -0.542, -0.011, -0.182, -0.275, 0.528, -0.415,
      0.418, 0.665, -0.285, 0.598, 0.376, 0.769, 0.448, -0.238, -0.591, -0.159,
      0.189, -0.734, 0.472, -0.572, 0.603, 0.31, 0.409, -0.086, -0.437, -0.549,
      0.186, 0.166, 0.331, 0.014, -0.176, -0.149, 0.133, -0.093, 0.118, -0.506,
      0.284, -0.474, 0.224, -0.615, -0.241, -0.136, -0.029, -0.184, 0.178,
      0.092, 0.251, -0.143, 0.068, 0.111, -0.241, 0.34,
    ],
    [
      -0.314, -0.533, -0.034, -0.147, 0.023, -0.199, 0.54, -0.26, -0.347,
      -0.008, 0.182, -0.191, 0.527, -0.392, 0.077, -0.213, 0.139, -0.003,
      -0.027, -0.301, 0.314, -0.219, 0.342, 0.378, -0.107, -0.054, 0.174, -0.24,
      -0.144, -0.463, 0.597, 0.233, 0.211, 0.512, -0.075, -0.343, 0.037, 0.329,
      -0.164, 0.24, 0.404, -0.459, 0.076, -0.237, 0.033, -0.125, 0.004, 0.154,
      -0.289, -0.279, 0.17, -0.368, 0.223, 0.147, -0.614, 0.11, -0.155, 0.28,
      -0.13, -0.503, 0.143, -0.244, 0.292, 0.062, 0.258, -0.035, 0.097, -0.052,
      -0.31, -0.364, -0.67, 0.599, -0.029, 0.333, 0.091, 0.153, 0.18, 0.198,
      -0.576, 0.155, 0.015, 0.519, 0.768, 0.392,
    ],
    [
      0.109, 0.207, 0.355, -0.074, -0.101, 0.07, 0.009, -0.144, -0.572, 0.125,
      -0.21, 0.144, -0.094, -0.378, -0.036, -0.031, 0.208, -0.045, 0.198, 0.026,
      -0.242, -0.385, -0.454, -0.101, 0.203, -0.288, 0.3, -0.133, -0.165, 0.017,
      -0.35, 0.144, -0.461, 0.193, 0.021, 0.11, -0.469, 0.222, 0.07, 0.254,
      -0.353, 0.162, 0.053, 0.158, -0.185, -0.005, -0.003, 0.197, -0.252, 0.056,
      -0.685, -0.18, -0.213, 0.101, -0.198, 0.085, -0.394, -0.335, 0.269, 0.148,
      -0.26, -0.097, 0.289, -0.346, -0.31, 0.039, 0.202, -0.207, 0.341, -0.425,
      -0.021, -0.12, 0.089, -0.263, 0.229, 0.027, -0.032, 0.212, -0.284, -0.241,
      -0.431, 0.224, -0.252, -0.248,
    ],
    [
      -0.507, -0.432, -0.329, 0.321, 0.027, -0.605, 0.196, -0.04, 0.46, -0.006,
      -0.423, 0.538, 0.092, -0.422, -0.57, 0.2, -0.15, -0.523, 0.406, 0.107,
      0.395, -0.19, -0.326, 0.264, 0.016, -0.017, -0.48, -0.077, 0.017, -0.384,
      -0.009, -0.26, -0.201, 0.121, 0.162, -0.048, 0.071, -0.209, 0.404, 0.354,
      0.325, -0.35, 0.167, -0.103, -0.046, 0.323, 0.604, -0.408, 0.399, 0.562,
      0.3, 0.54, 0.19, 0.002, -0.62, 0.107, -0.463, -0.698, -0.079, -0.198,
      -0.255, 0.083, -0.111, 0.006, 0.302, 0.583, 0.2, -0.244, -0.214, 0.162,
      0.142, -0.421, 0.094, -0.034, -0.232, 0.192, -0.263, 0.183, 0.193, 0.407,
      -0.217, -0.732, 0.209, 0.048,
    ],
    [
      0.424, -0.321, -0.031, -0.097, -0.287, 0.004, 0.163, 0.202, -0.184, -0.7,
      -0.107, 0.72, 0.514, 0.504, 0.128, 0.09, 0.329, -0.131, -0.018, 0.144,
      0.211, 0.101, 0.62, -0.038, -0.416, -0.083, 0.257, 0.03, -0.648, -0.307,
      0.215, -0.12, 0.052, 0.063, 0.296, 0.575, 0.384, 0.231, 0.298, 0.306,
      -0.715, 0.218, 0.391, -0.125, 0.178, 0.139, -0.111, -0.135, 0.243, -0.384,
      -0.381, 0.132, 0.289, 0.069, -0.005, 0.478, 0.347, -0.259, 0.6, -0.232,
      0.201, 0.272, -0.061, 0.233, 0.299, -0.005, -0.368, 0.463, 0.461, 0.171,
      -0.596, 0.457, -0.569, -0.083, -0.3, -0.099, 0.274, -0.034, -0.57, -0.478,
      0.499, 0.095, -0.232, -0.514,
    ],
    [
      -0.271, -0.389, -0.12, 0.603, -0.321, -0.369, -0.118, 0.037, 0.427, 0.145,
      -0.129, 0.116, -0.264, -0.118, 0.005, -0.079, 0.338, 0.211, 0.199, -0.23,
      -0.026, 0.014, 0.109, 0.206, 0.025, -0.134, 0.18, 0.624, 0.05, -0.062,
      -0.085, -0.304, -0.396, 0.105, 0.046, -0.11, 0.041, -0.136, 0.157, -0.524,
      -0.049, 0.26, -0.167, 0.333, -0.359, 0.344, -0.602, -0.159, -0.416,
      -0.166, 0.278, -0.072, 0.101, 0.365, 0.086, -0.061, -0.021, -0.235, 0.68,
      -0.009, 0.4, -0.421, -0.139, 0.42, 0.097, -0.002, -0.154, 0.255, 0.275,
      -0.328, -0.413, -0.15, 0.049, -0.391, -0.044, -0.261, 0.313, -0.017,
      -0.047, 0.422, -0.212, 0.037, 0.082, 0.162,
    ],
    [
      -0.44, 0.533, -0.115, 0.159, -0.491, -0.264, -0.264, -0.353, -0.206,
      0.222, 0.237, -0.27, 0.247, 0.622, -0.081, 0.202, -0.328, 0.002, 0.218,
      0.35, -0.218, 0.105, -0.319, 0.185, 0.074, -0.569, -0.141, 0.415, -0.179,
      0.236, -0.269, 0.105, -0.223, 0.489, 0.071, 0.438, -0.394, 0.023, -0.332,
      -0.074, 0.202, 0.107, -0.09, -0.216, -0.149, -0.235, 0.403, 0.652, -0.482,
      0.165, 0.525, 0.248, 0.338, -0.334, 0.156, -0.129, -0.332, 0.248, 0.163,
      -0.174, -0.506, 0.141, 0.185, 0.544, -0.025, -0.096, 0.331, 0.822, 0.093,
      -0.146, 0.009, -0.429, 0.229, 0.066, 0.046, 0.011, -0.166, 0.252, -0.195,
      -0.405, 0.183, -0.112, 0.234, -0.047,
    ],
    [
      0.348, 0.128, -0.562, 0.246, 0.444, 0.328, -0.513, 0.24, 0.492, -0.03,
      -0.115, 0.111, 0.304, -0.63, 0.053, 0.104, 0.082, 0.354, 0.343, -0.483,
      0.468, 0.401, -0.224, 0.223, 0.033, -0.335, -0.531, 0.561, 0.465, 0.079,
      0.594, -0.273, 0.638, 0.112, 0.168, -0.603, -0.492, 0.336, -0.682, 0.079,
      0.431, 0.567, -0.11, 0.515, -0.532, 0.624, -0.014, 0.038, 0.424, -0.036,
      0.37, 0.026, -0.192, 0.261, 0.331, 0.675, -0.628, 0.294, 0.366, 0.294,
      0.501, -0.084, -0.391, 0.289, 0.062, 0.026, 0.12, -0.342, -0.12, 0.255,
      0.487, 0.006, 0.005, -0.243, -0.237, -0.249, -0.07, -0.382, 0.619, 0.215,
      -0.286, 0.458, -0.128, 0.35,
    ],
    [
      -0.415, 0.188, -0.309, 0.475, 0.543, -0.46, 0.264, 0.035, 0.466, 0.259,
      -0.305, 0.005, -0.204, 0.509, 0.053, 0.091, -0.126, 0.172, -0.225, -0.66,
      0.234, 0.218, 0.065, -0.333, -0.133, 0.237, 0.328, -0.33, 0.286, 0.401,
      0.633, -0.226, 0.293, -0.241, -0.493, -0.199, 0.011, 0.149, 0.394, -0.017,
      -0.166, -0.648, -0.135, -0.178, -0.639, 0.314, -0.203, 0.402, -0.084,
      -0.546, 0.044, -0.053, 0.262, 0.188, -0.18, 0.299, 0.419, 0.351, 0.401,
      -0.676, 0.075, 0.416, 0.236, -0.563, 0.003, -0.275, 0.302, -0.276, -0.567,
      -0.047, 0.333, 0.296, -0.12, -0.43, 0.04, 0.168, 0.11, 0.118, 0.32,
      -0.665, 0.037, 0.617, -0.57, 0.118,
    ],
    [
      0.123, -0.005, -0.188, 0.029, 0.363, 0.398, 0.352, -0.051, 0.103, 0.226,
      -0.363, -0.042, -0.123, 0.486, -0.549, -0.166, 0.098, -0.002, 0.29, 0.022,
      -0.074, -0.093, 0.287, 0.078, -0.008, -0.234, 0.57, -0.206, 0.378, -0.141,
      -0.666, 0.09, -0.043, 0.265, 0.793, -0.226, 0.272, 0.062, -0.156, 0.318,
      0.611, -0.11, 0.162, 0.45, 0.378, 0.064, -0.311, 0.605, -0.312, -0.3,
      0.588, 0.335, -0.452, -0.115, -0.024, 0.381, -0.31, 0.09, -0.181, 0.015,
      0.036, 0.05, -0.095, 0.179, -0.586, 0.012, 0.604, -0.148, -0.323, 0.278,
      -0.447, 0.35, -0.232, 0.531, -0.206, -0.242, -0.073, -0.191, -0.118, -0.6,
      0.447, 0.113, 0.251, -0.058,
    ],
    [
      -0.072, 0.028, -0.297, 0.103, -0.134, -0.684, 0.077, 0.61, 0.226, 0.497,
      0.31, 0.272, 0.265, -0.632, 0.449, -0.305, -0.061, -0.586, -0.638, 0.155,
      0.076, 0.763, 0.042, -0.041, 0.574, 0.071, -0.366, -0.229, 0.331, -0.448,
      0.185, 0.052, 0.65, 0.346, 0.33, 0.007, -0.226, 0.455, -0.103, 0.402,
      0.172, 0.386, -0.326, 0.248, -0.448, 0.075, -0.118, 0.212, -0.04, 0.118,
      -0.405, -0.074, 0.029, -0.158, 0.088, -0.305, 0.191, -0.07, -0.416, 0.249,
      -0.024, -0.245, -0.53, -0.406, -0.208, 0.049, -0.148, 0.021, -0.148,
      0.512, -0.177, 0.089, 0.13, -0.113, 0.149, 0.089, 0.253, -0.751, -0.311,
      -0.02, 0.399, 0.226, 0.143, -0.201,
    ],
    [
      0.017, -0.401, 0.292, -0.227, -0.296, -0.471, 0.031, 0.121, -0.221, 0.253,
      0.388, -0.203, -0.481, 0.069, 0.246, -0.025, -0.182, 0.048, 0.322, -0.192,
      -0.273, -0.046, -0.431, 0.371, -0.207, -0.069, 0.239, 0.315, -0.021,
      0.191, -0.671, 0.118, 0.14, 0.023, 0.231, -0.414, -0.402, 0.07, -0.258,
      0.334, 0.213, -0.426, -0.164, 0.278, -0.119, 0.096, 0.105, -0.076, -0.079,
      -0.107, -0.139, 0.297, 0.45, -0.511, 0.399, -0.072, -0.134, 0.041, -0.357,
      -0.196, 0.153, -0.062, -0.162, 0.531, -0.064, -0.281, -0.403, 0.114,
      -0.026, -0.393, 0.323, 0.348, -0.376, 0.197, -0.37, -0.458, -0.018,
      -0.158, -0.24, 0.479, 0.002, -0.25, 0.15, -0.136,
    ],
    [
      0.231, -0.625, -0.17, -0.135, -0.378, 0.314, -0.378, -0.122, -0.063,
      -0.047, 0.081, -0.008, 0.152, 0.336, -0.262, 0.176, 0.585, 0.313, 0.408,
      -0.292, -0.335, -0.173, -0.335, -0.135, 0.152, -0.196, -0.353, 0.509,
      0.191, 0.125, 0.375, 0.304, -0.364, 0.378, 0.35, 0.382, 0.363, -0.276,
      -0.223, -0.122, 0.036, 0.334, 0.369, -0.391, -0.055, -0.608, -0.091,
      -0.125, 0.351, -0.006, -0.115, 0.3, 0.49, 0.038, 0.293, -0.254, -0.043,
      0.188, -0.026, 0.16, -0.224, -0.07, 0.325, -0.168, 0.077, -0.189, 0.07,
      -0.008, 0.196, 0.228, 0.219, 0.362, 0.157, -0.189, 0.306, 0.241, -0.065,
      -0.117, 0.37, -0.07, -0.234, -0.263, 0.512, -0.231,
    ],
    [
      -0.11, 0.562, -0.282, 0.339, 0.123, 0.065, 0.238, 0.191, -0.113, 0.523,
      0.06, 0.256, 0.132, -0.236, 0.024, -0.433, -0.175, -0.281, -0.155, 0.349,
      -0.125, 0.032, 0.477, 0.089, 0.334, 0.184, -0.613, -0.005, -0.709, -0.121,
      0.202, -0.007, -0.082, -0.353, -0.658, -0.365, -0.339, -0.136, -0.148,
      0.339, 0.307, -0.365, 0.082, 0.321, 0.197, 0.156, -0.206, -0.339, 0.397,
      -0.121, -0.057, 0.417, -0.439, 0.374, 0.367, 0.263, 0.453, -0.387, -0.191,
      0.614, -0.214, -0.264, -0.037, -0.048, -0.009, 0.185, -0.249, -0.126,
      0.147, -0.209, 0.394, 0.318, -0.002, 0.2, 0.017, 0.242, -0.182, -0.017,
      -0.391, 0.053, 0.185, -0.331, 0.217, -0.029,
    ],
    [
      0.191, -0.245, -0.403, -0.344, 0.297, 0.544, -0.204, -0.588, 0.543, 0.661,
      0.33, 0.274, -0.091, 0.521, -0.763, 0.355, 0.366, 0.347, 0.07, -0.21,
      0.442, -0.234, 0.312, -0.351, -0.454, -0.445, -0.31, -0.297, 0.218,
      -0.075, 0.19, -0.393, 0.521, 0.384, 0.693, -0.17, 0.325, 0.352, -0.377,
      0.344, -0.733, 0.142, -0.193, -0.194, 0.278, -0.673, 0.24, -0.476, 0.512,
      -0.423, 0.026, 0.65, -0.338, 0.25, -0.527, 0.421, -0.439, -0.182, 0.569,
      0.39, 0.213, -0.206, -0.392, -0.479, 0.187, 0.209, -0.312, 0.145, 0.299,
      -0.08, -0.266, 0.617, 0.301, 0.567, -0.275, -0.129, -0.329, -0.411, 0.356,
      0.065, -0.001, -0.463, 0.514, 0.561,
    ],
    [
      -0.071, -0.347, -0.185, -0.399, 0.559, 0.434, -0.163, 0.108, 0.615, 0.469,
      -0.144, 0.123, -0.482, 0.333, -0.288, 0.023, -0.658, 0.124, 0.311, -0.203,
      0.501, -0.085, -0.114, 0.012, -0.026, -0.225, 0.562, -0.258, -0.397,
      0.156, 0.393, -0.104, -0.059, 0.369, 0.34, 0.002, -0.405, -0.012, -0.125,
      -0.343, -0.821, -0.369, -0.004, -0.057, 0.08, -0.228, -0.249, -0.16,
      -0.006, 0.062, -0.209, 0.56, -0.372, 0.011, 0.373, -0.296, -0.26, 0.514,
      -0.373, 0.301, 0.287, -0.16, -0.056, 0.206, -0.193, 0.16, -0.005, 0.391,
      -0.291, 0.396, 0.212, 0.09, -0.253, 0.179, 0.002, -0.27, 0.292, 0.077,
      -0.405, -0.193, 0.398, 0.258, 0.193, 0.169,
    ],
    [
      -0.133, 0.08, -0.247, 0.374, 0.108, 0.097, -0.372, 0.381, -0.385, 0.142,
      -0.074, -0.393, -0.394, 0.168, -0.246, 0.323, -0.212, -0.235, -0.25,
      0.126, -0.174, 0.114, 0.358, -0.237, 0.209, 0.119, 0.166, -0.379, 0.232,
      -0.412, 0.446, -0.222, 0.245, -0.363, -0.217, 0.014, 0.378, 0.447, 0.166,
      0.371, -0.305, 0.486, -0.388, -0.09, 0.219, -0.153, -0.005, -0.515, 0.121,
      0.434, -0.486, 0.168, 0.069, -0.137, -0.097, -0.154, -0.104, 0.082,
      -0.295, -0.35, -0.409, 0.247, 0.297, 0.453, -0.101, -0.197, 0.528, -0.187,
      0.05, -0.105, 0.109, 0.245, -0.444, -0.107, -0.605, -0.434, 0.036, 0.282,
      0.279, 0.356, -0.396, -0.443, -0.437, 0.158,
    ],
    [
      -0.085, 0.308, 0.401, -0.224, 0.272, 0.13, -0.253, 0.403, -0.067, 0.383,
      -0.213, -0.285, 0.114, 0.414, 0.246, -0.366, 0.335, -0.272, -0.17, 0.09,
      0.115, 0.187, -0.029, 0.371, -0.217, 0.321, -0.05, 0.211, -0.438, 0.233,
      -0.24, 0.343, -0.054, -0.265, -0.188, -0.205, -0.042, -0.199, 0.071,
      -0.033, 0.148, 0.162, 0.418, -0.095, 0.265, -0.195, -0.157, -0.303, 0.219,
      0.221, -0.261, 0.425, 0.097, -0.355, -0.249, 0.271, -0.006, -0.201,
      -0.212, -0.257, -0.102, -0.094, -0.18, -0.011, 0.443, 0.274, -0.206,
      0.241, 0.338, 0.249, -0.433, -0.106, 0.18, 0.319, 0.313, 0.027, -0.054,
      -0.371, 0.302, 0.361, -0.246, 0.216, -0.093, 0.12,
    ],
    [
      0.376, 0.535, 0.268, -0.011, 0.298, -0.224, -0.355, -0.181, 0.189, 0.115,
      0.422, 0.15, -0.179, -0.086, -0.245, 0.247, -0.316, -0.02, -0.531, 0.375,
      -0.36, -0.111, 0.006, -0.019, 0.416, -0.474, -0.159, 0.005, -0.325, -0.18,
      -0.511, -0.111, -0.294, -0.382, -0.156, 0.05, -0.297, -0.07, -0.267,
      -0.22, 0.142, -0.244, 0.331, -0.406, -0.149, -0.483, 0.252, 0.172, -0.386,
      -0.316, -0.195, -0.505, -0.621, -0.46, -0.277, -0.156, 0.195, 0.339,
      0.422, 0.136, 0.369, -0.408, 0.273, 0.278, -0.253, -0.33, 0.356, -0.171,
      0.026, -0.714, 0.11, -0.212, -0.198, -0.287, 0.321, 0.535, 0.281, 0.025,
      -0.468, 0.145, -0.092, -0.451, -0.274, -0.368,
    ],
    [
      -0.143, -0.11, -0.158, 0.024, -0.945, -0.293, -0.036, 0.068, 0.129,
      -0.177, -0.248, 0.883, -0.056, 0.439, 0.132, -0.092, -0.449, -0.035,
      0.039, 0.536, 0.194, 0.368, 0.046, 0.276, 0.439, 0.355, 0.138, 0.372,
      -0.189, 0.0, -0.5, -0.193, 0.327, -0.221, 0.212, -0.311, 0.104, 0.39,
      0.335, 0.095, 0.37, 0.15, 0.566, -0.433, -0.502, 0.407, -0.208, -0.448,
      0.052, -0.255, -0.465, 0.155, -0.729, 0.194, 0.095, 0.431, 0.109, -0.281,
      -0.604, -0.682, 0.365, 0.068, -0.035, -0.004, 0.291, 0.282, -0.068, 0.187,
      -0.502, -0.225, -0.073, 0.134, -0.619, -0.039, 0.054, -0.309, 0.322,
      -0.262, -0.486, -0.196, 0.471, 0.295, -0.658, 0.096,
    ],
    [
      -0.277, 0.219, 0.645, 0.276, 0.657, -0.287, 0.389, 0.231, 0.192, -0.261,
      -0.406, -0.563, 0.211, -0.114, 0.038, -0.079, -0.062, 0.388, 0.066, 0.5,
      -0.113, -0.012, -0.222, 0.33, 0.21, 0.556, 0.139, -0.104, 0.53, 0.248,
      0.113, -0.007, 0.471, -0.458, -0.138, 0.2, 0.14, -0.086, -0.346, 0.123,
      -0.238, 0.438, 0.513, -0.348, -0.56, -0.006, -0.009, 0.417, 0.143, -0.628,
      -0.479, 0.282, 0.408, 0.132, 0.05, -0.177, 0.647, 0.518, -0.228, -0.004,
      -0.151, 0.481, -0.287, -0.141, 0.571, 0.403, -0.111, 0.565, -0.498, 0.596,
      0.718, -0.051, -0.245, 0.288, -0.361, 0.384, 0.473, -0.246, 0.42, 0.101,
      0.192, 0.393, -0.389, 0.113,
    ],
    [
      0.182, 0.152, -0.761, -0.121, 0.107, 0.232, -0.55, 0.877, -0.063, 0.539,
      0.247, -0.435, -0.087, -0.492, -0.229, 0.168, 0.261, 0.128, 0.619, -0.37,
      0.674, -0.583, 0.591, 0.534, 0.495, 0.626, -0.696, -0.25, -0.391, 0.006,
      -0.058, -0.034, -0.698, 0.168, -0.544, -0.319, -0.664, -0.139, 0.319,
      -0.209, 0.318, -0.212, -0.479, -0.502, -0.103, 0.293, 0.422, -0.255,
      0.043, 0.338, -0.431, -0.32, 0.605, 0.0, 0.077, 0.392, 0.187, -0.174,
      -0.638, -0.089, -0.101, -0.199, 0.126, -0.246, -0.541, 0.285, -0.105,
      0.511, -0.077, 0.382, -0.484, -0.357, 0.45, -0.267, 0.21, 0.485, 0.43,
      0.461, 0.093, -0.834, 0.285, -0.987, -0.664, 0.444,
    ],
    [
      -0.317, 0.261, 0.302, -0.138, -0.398, 0.269, 0.254, -0.006, -0.194, -0.14,
      -0.207, -0.162, -0.285, -0.36, 0.073, 0.584, 0.17, -0.2, 0.5, -0.001,
      0.159, 0.444, -0.313, -0.292, 0.112, 0.244, 0.039, 0.053, 0.262, 0.01,
      -0.406, -0.263, 0.531, 0.299, -0.461, -0.272, 0.698, 0.211, -0.508,
      -0.585, -0.341, -0.205, -0.006, -0.497, 0.246, 0.036, 0.091, 0.738, 0.253,
      0.299, -0.037, -0.153, -0.35, 0.583, -0.165, -0.311, 0.213, -0.344,
      -0.572, -0.688, -0.368, 0.007, -0.227, -0.351, -0.11, 0.302, -0.612,
      -0.034, 0.467, -0.302, 0.357, 0.233, 0.633, -0.049, 0.111, -0.026, -0.277,
      0.435, 0.208, -0.39, 0.209, 0.228, -0.291, 0.03,
    ],
    [
      -0.498, -0.415, -0.088, -0.216, -0.063, 0.256, 0.521, -0.337, 0.123,
      -0.857, 0.177, -0.126, 0.593, 0.109, 0.063, -0.273, -0.012, -0.304, 0.058,
      -0.146, -0.146, 0.165, 0.094, 0.517, 0.032, 0.171, 0.065, 0.112, 0.658,
      0.064, 0.389, -0.549, -0.049, -0.212, 0.152, -0.352, -0.269, 0.017, 0.483,
      -0.149, -0.123, -0.023, 0.542, -0.12, 0.372, 0.478, -0.573, 0.673, -0.237,
      -0.747, 0.359, 0.25, 0.199, -0.231, 0.028, -0.105, -0.63, 0.263, 0.615,
      -0.172, 0.081, 0.575, -0.667, -0.129, -0.07, 0.28, -0.232, 0.258, -0.493,
      0.344, -0.268, -0.279, -0.133, 0.249, 0.101, -0.331, -0.35, 0.026, -0.176,
      0.715, 0.107, -0.124, -0.271, 0.195,
    ],
  ],
  "rnn.W_ih": [
    [
      0.106, 0.211, 0.198, 0.036, 0.088, -0.104, 0.0, -0.072, -0.204, -0.099,
      -0.062, 0.067, -0.002, -0.266, 0.103, -0.025, -0.198, -0.029, -0.063,
      0.059, 0.038, -0.093, 0.086, 0.09, -0.023, 0.021, -0.15, -0.182, -0.278,
      0.09, -0.042, -0.024, 0.038, -0.475, -0.256, -0.092, -0.143, -0.002,
      0.115, 0.004, 0.09, -0.228, 0.108, 0.054, -0.06, 0.094, 0.199, -0.2,
      0.019, -0.167, -0.019, -0.369, -0.185, 0.095, -0.07, 0.014, 0.106, -0.002,
      -0.246, -0.083, 0.001, 0.149, 0.152, -0.102, -0.038, -0.065, 0.032,
      -0.258, 0.017, -0.068, 0.191, -0.107, 0.09, -0.004, 0.167, 0.156, 0.042,
      0.196, -0.057, -0.1, -0.102, 0.017, -0.202, 0.071,
    ],
    [
      -0.056, -0.406, -0.36, -0.131, -0.043, 0.285, 0.068, -0.163, 0.308,
      -0.029, -0.075, 0.223, 0.087, -0.037, -0.091, 0.066, 0.039, -0.02, 0.117,
      -0.05, 0.343, 0.01, 0.233, -0.038, -0.063, -0.127, 0.057, -0.015, -0.068,
      -0.08, 0.029, 0.022, -0.223, 0.343, 0.189, 0.002, 0.064, -0.127, 0.025,
      -0.168, -0.097, 0.042, 0.08, 0.025, 0.24, 0.09, -0.175, 0.106, 0.017,
      -0.124, 0.393, -0.071, -0.325, 0.301, -0.124, 0.03, -0.114, -0.091, 0.142,
      0.113, 0.206, -0.015, -0.102, -0.021, -0.01, 0.162, 0.155, -0.075, -0.022,
      -0.092, -0.448, -0.006, -0.031, 0.104, 0.075, -0.029, 0.073, 0.16, -0.233,
      -0.264, 0.072, 0.116, 0.215, 0.147,
    ],
    [
      0.025, -0.045, -0.028, 0.077, 0.026, 0.018, 0.032, 0.004, 0.091, 0.111,
      -0.029, -0.044, -0.031, 0.071, 0.152, -0.06, 0.073, 0.12, 0.047, 0.041,
      -0.158, -0.024, -0.158, 0.033, 0.042, 0.07, 0.089, 0.094, 0.236, 0.162,
      0.185, -0.027, -0.124, -0.01, -0.003, 0.253, 0.095, -0.089, 0.156, 0.062,
      -0.032, 0.165, 0.031, -0.186, -0.148, -0.032, 0.094, -0.034, -0.065,
      -0.151, -0.151, 0.056, 0.272, 0.035, 0.19, -0.132, 0.113, 0.05, -0.163,
      -0.083, -0.11, -0.027, 0.124, -0.049, -0.027, -0.168, -0.002, 0.048,
      -0.093, 0.05, 0.181, -0.119, -0.021, -0.149, 0.073, -0.074, 0.108, -0.078,
      0.154, -0.046, -0.035, -0.05, 0.03, -0.113,
    ],
    [
      -0.176, 0.381, -0.213, 0.167, -0.01, 0.019, 0.114, -0.017, -0.133, -0.123,
      -0.124, -0.046, 0.015, 0.143, -0.006, 0.072, -0.202, 0.128, 0.224, 0.177,
      -0.058, -0.087, -0.13, 0.235, 0.012, -0.174, -0.016, 0.177, 0.03, 0.021,
      -0.088, -0.19, -0.203, -0.037, -0.258, 0.11, 0.02, -0.001, -0.037, 0.129,
      0.264, -0.008, -0.048, 0.042, -0.065, 0.086, 0.297, 0.145, -0.015, -0.191,
      0.204, 0.048, -0.106, 0.084, 0.255, 0.229, -0.061, -0.117, 0.145, -0.116,
      -0.028, 0.151, 0.205, 0.28, -0.083, -0.129, 0.365, 0.133, -0.23, -0.131,
      0.244, -0.067, -0.028, -0.041, -0.039, -0.023, 0.073, 0.266, -0.008,
      -0.174, -0.018, -0.039, -0.155, 0.029,
    ],
    [
      -0.045, 0.001, -0.308, 0.199, -0.144, -0.088, 0.102, -0.097, 0.226,
      -0.193, 0.189, 0.134, 0.053, 0.066, 0.006, -0.068, -0.15, 0.253, 0.015,
      -0.129, 0.136, 0.193, 0.333, 0.011, 0.012, 0.166, -0.34, 0.184, -0.106,
      0.223, 0.216, -0.074, 0.001, -0.269, -0.301, 0.0, -0.26, -0.093, -0.032,
      -0.295, 0.076, -0.24, -0.053, -0.07, -0.075, 0.256, 0.091, -0.057, -0.043,
      0.116, 0.279, -0.076, 0.079, 0.264, 0.255, -0.204, 0.16, 0.046, -0.1,
      0.029, 0.094, 0.055, -0.236, 0.069, -0.055, -0.097, -0.051, 0.161, -0.104,
      -0.029, 0.13, -0.127, 0.08, -0.037, 0.033, -0.068, -0.056, 0.156, -0.091,
      0.048, 0.208, -0.189, 0.02, 0.107,
    ],
    [
      0.047, -0.168, -0.205, 0.219, 0.16, 0.103, 0.078, 0.013, 0.145, 0.027,
      -0.007, -0.115, 0.177, 0.145, 0.127, 0.229, -0.045, -0.117, 0.075, 0.21,
      0.041, 0.238, -0.006, 0.183, -0.021, -0.103, -0.183, 0.138, 0.29, 0.014,
      0.073, -0.143, 0.26, 0.287, 0.09, 0.15, 0.282, 0.205, -0.159, 0.15,
      -0.016, 0.246, 0.037, 0.17, 0.143, -0.001, -0.081, 0.098, 0.126, 0.033,
      0.096, 0.24, 0.089, 0.174, 0.125, -0.026, -0.086, -0.092, 0.079, 0.26,
      0.032, 0.03, -0.183, 0.145, 0.057, 0.042, -0.189, 0.274, 0.008, 0.208,
      0.137, 0.094, -0.159, 0.093, -0.182, -0.127, 0.098, -0.119, 0.178, 0.078,
      0.234, -0.122, 0.144, 0.078,
    ],
    [
      0.089, 0.293, -0.021, 0.283, -0.132, 0.007, -0.142, 0.026, 0.058, -0.186,
      0.007, 0.047, 0.152, -0.015, 0.017, -0.024, 0.155, 0.108, -0.134, -0.092,
      -0.058, -0.186, 0.201, -0.152, 0.108, -0.103, -0.211, 0.022, 0.0, -0.128,
      0.13, -0.127, 0.05, -0.211, -0.321, 0.141, -0.019, 0.082, 0.062, -0.293,
      0.137, 0.091, -0.036, -0.275, -0.01, 0.094, 0.23, -0.208, 0.065, -0.097,
      -0.011, -0.164, -0.161, 0.249, -0.171, 0.259, 0.179, 0.114, 0.023, -0.131,
      -0.083, 0.016, 0.097, 0.02, 0.12, 0.017, 0.242, -0.195, 0.236, 0.085,
      -0.187, 0.021, 0.065, -0.019, -0.079, 0.247, -0.111, -0.07, 0.171, 0.234,
      -0.223, -0.061, -0.24, 0.007,
    ],
    [
      -0.116, 0.186, -0.076, -0.035, 0.136, 0.365, -0.251, 0.102, 0.048, -0.106,
      -0.061, 0.015, 0.104, -0.041, 0.055, 0.093, -0.122, -0.185, -0.118, 0.338,
      -0.06, 0.092, -0.005, 0.038, -0.051, 0.018, -0.108, -0.127, -0.128,
      -0.049, 0.246, -0.061, -0.029, 0.34, 0.001, 0.22, -0.067, -0.195, 0.334,
      -0.004, -0.225, 0.312, 0.298, 0.042, 0.099, -0.167, -0.114, -0.173, 0.146,
      0.074, -0.023, -0.098, -0.052, 0.11, 0.136, -0.167, -0.047, 0.278, 0.17,
      0.301, -0.034, 0.236, 0.07, -0.007, -0.039, 0.06, 0.073, -0.204, 0.149,
      0.173, 0.131, -0.043, -0.105, -0.054, -0.055, 0.094, 0.071, 0.2, 0.102,
      -0.061, -0.002, 0.01, -0.102, -0.007,
    ],
    [
      0.028, 0.252, -0.045, 0.237, 0.286, -0.137, -0.053, 0.099, -0.101, -0.075,
      0.092, -0.114, -0.054, -0.225, 0.152, -0.184, 0.223, -0.171, -0.23, 0.07,
      0.002, 0.116, 0.084, 0.154, -0.059, 0.096, -0.195, -0.155, -0.002, -0.009,
      -0.146, -0.073, -0.078, -0.368, -0.425, -0.179, 0.077, -0.202, 0.092,
      0.321, 0.38, 0.461, 0.029, 0.121, -0.023, 0.165, 0.021, -0.084, -0.047,
      0.033, -0.117, -0.457, 0.438, -0.352, -0.362, 0.113, 0.046, -0.23, 0.402,
      -0.187, 0.046, 0.255, -0.064, 0.188, 0.093, 0.125, 0.049, -0.24, 0.076,
      0.023, -0.113, -0.161, -0.123, 0.072, -0.278, 0.11, -0.049, -0.079, 0.251,
      0.074, -0.361, -0.166, -0.323, 0.045,
    ],
    [
      -0.059, 0.108, -0.481, 0.182, -0.045, -0.063, -0.018, 0.041, -0.122,
      0.025, 0.047, -0.035, 0.203, -0.038, 0.088, 0.014, 0.095, -0.02, 0.012,
      0.057, -0.274, 0.175, 0.291, 0.08, 0.206, 0.059, -0.204, -0.029, 0.112,
      -0.102, 0.099, -0.06, -0.071, -0.063, -0.172, -0.016, -0.014, -0.109,
      0.037, 0.084, 0.112, -0.041, -0.149, 0.17, -0.013, -0.018, -0.152, 0.093,
      0.059, -0.093, 0.194, -0.099, 0.184, 0.284, 0.112, -0.041, 0.217, -0.165,
      0.108, 0.221, 0.011, 0.089, -0.029, -0.13, 0.013, -0.132, -0.116, -0.012,
      0.045, -0.017, 0.039, -0.026, 0.086, -0.061, 0.004, 0.194, -0.051, -0.031,
      0.082, -0.177, 0.186, -0.061, 0.126, 0.083,
    ],
    [
      0.156, -0.21, 0.146, -0.017, 0.033, -0.086, 0.049, -0.067, -0.04, -0.213,
      -0.123, 0.123, -0.049, -0.077, 0.018, -0.009, 0.1, 0.126, 0.155, -0.181,
      -0.046, -0.138, -0.006, -0.027, -0.054, 0.018, 0.077, -0.169, 0.1, 0.125,
      0.053, 0.051, -0.189, -0.113, 0.051, -0.022, 0.071, -0.099, 0.074, 0.082,
      -0.102, -0.023, 0.043, 0.142, 0.062, -0.033, -0.039, -0.133, -0.017,
      -0.003, -0.119, -0.02, 0.139, -0.022, 0.102, 0.044, 0.035, -0.097, 0.196,
      -0.058, -0.074, -0.055, -0.055, -0.146, 0.092, -0.058, 0.0, -0.121, 0.171,
      0.061, -0.02, -0.031, 0.005, -0.12, 0.124, -0.031, -0.051, 0.042, 0.184,
      -0.03, -0.049, 0.012, -0.062, -0.149,
    ],
    [
      -0.034, -0.074, 0.02, 0.163, 0.258, 0.176, 0.078, -0.168, 0.24, 0.026,
      -0.131, -0.017, -0.092, -0.062, -0.067, -0.091, -0.01, 0.035, -0.005,
      -0.01, 0.051, 0.11, 0.157, 0.061, -0.087, -0.069, 0.042, -0.276, 0.19,
      -0.01, 0.132, -0.157, 0.049, 0.144, 0.09, 0.016, 0.062, -0.072, -0.173,
      0.127, -0.041, -0.109, -0.043, 0.353, -0.067, 0.065, -0.131, 0.122,
      -0.025, -0.169, 0.203, 0.042, 0.071, 0.06, 0.144, -0.2, -0.08, -0.006,
      0.07, 0.251, 0.005, -0.163, -0.215, 0.081, -0.144, 0.1, 0.25, -0.019,
      0.001, 0.066, -0.004, -0.172, 0.183, 0.018, -0.202, 0.189, -0.085, -0.071,
      -0.023, 0.01, -0.041, 0.065, 0.198, 0.221,
    ],
    [
      -0.113, 0.201, -0.08, 0.227, -0.13, 0.183, -0.062, 0.092, 0.194, 0.079,
      -0.195, -0.25, -0.147, 0.215, -0.203, 0.339, 0.055, -0.127, 0.143, -0.14,
      0.055, 0.127, -0.295, -0.113, -0.133, -0.043, -0.122, 0.073, 0.352, 0.052,
      0.216, -0.117, 0.305, 0.148, -0.007, 0.044, 0.219, 0.346, -0.266, 0.05,
      -0.062, 0.206, -0.169, -0.275, -0.187, 0.02, 0.236, 0.072, 0.071, 0.21,
      0.055, 0.256, 0.087, 0.075, -0.055, 0.152, -0.152, -0.019, 0.079, -0.303,
      -0.258, 0.137, -0.097, 0.136, 0.284, 0.208, 0.048, 0.322, -0.136, 0.121,
      0.12, 0.111, 0.161, 0.047, -0.252, -0.135, -0.269, -0.061, 0.321, -0.066,
      -0.074, 0.018, -0.186, 0.136,
    ],
    [
      -0.085, 0.215, -0.113, -0.001, -0.192, -0.188, 0.018, -0.163, 0.192,
      -0.139, 0.196, 0.075, 0.125, 0.108, -0.048, 0.099, -0.169, 0.079, -0.187,
      0.066, 0.082, -0.013, 0.058, -0.078, -0.047, -0.116, -0.089, -0.065,
      -0.177, -0.171, 0.071, -0.104, 0.138, 0.252, 0.013, 0.404, 0.055, 0.155,
      -0.113, -0.08, -0.322, -0.067, -0.078, -0.345, -0.03, 0.013, 0.49, -0.149,
      -0.029, 0.025, 0.113, 0.078, 0.018, 0.034, -0.022, -0.037, 0.147, 0.137,
      0.101, -0.046, -0.0, -0.049, -0.004, 0.161, 0.026, -0.022, -0.044, 0.302,
      0.062, -0.036, -0.411, -0.006, 0.139, -0.06, -0.029, 0.271, -0.046,
      -0.033, -0.205, -0.097, 0.19, -0.196, 0.194, -0.118,
    ],
    [
      0.257, -0.128, -0.038, -0.192, -0.043, -0.017, -0.003, -0.022, 0.21,
      0.078, 0.033, 0.216, -0.152, -0.241, -0.066, -0.03, 0.043, 0.307, 0.254,
      -0.228, 0.196, -0.154, -0.078, -0.065, 0.038, 0.087, -0.204, -0.104,
      -0.018, 0.064, -0.046, 0.042, 0.177, 0.039, 0.187, -0.419, -0.26, -0.01,
      -0.169, 0.191, -0.018, -0.404, -0.267, 0.048, -0.121, 0.122, 0.186,
      -0.126, 0.23, -0.129, -0.265, 0.016, -0.035, 0.144, 0.089, 0.224, 0.013,
      -0.019, -0.005, 0.16, 0.215, -0.055, -0.265, -0.23, -0.143, 0.094, -0.125,
      -0.01, -0.11, 0.017, 0.122, 0.072, 0.187, 0.135, 0.071, -0.032, -0.004,
      -0.197, -0.092, -0.165, 0.145, -0.121, 0.04, 0.081,
    ],
    [
      -0.144, 0.088, -0.177, -0.069, 0.057, 0.299, -0.04, 0.099, 0.048, 0.11,
      -0.003, 0.089, -0.315, -0.219, 0.078, -0.178, 0.084, -0.172, 0.102,
      -0.305, 0.209, 0.054, 0.078, -0.091, -0.123, 0.072, 0.326, -0.154, 0.04,
      -0.093, -0.035, -0.205, 0.086, 0.057, -0.213, -0.192, 0.011, 0.12, 0.135,
      0.004, -0.033, -0.27, -0.257, 0.067, -0.196, 0.191, -0.09, -0.042, 0.255,
      0.082, -0.213, -0.076, -0.193, 0.203, -0.184, 0.073, -0.072, 0.01, 0.111,
      -0.256, 0.224, 0.132, -0.077, -0.036, 0.117, 0.052, -0.169, -0.162,
      -0.052, -0.016, 0.195, 0.223, -0.17, 0.191, -0.167, -0.251, 0.115, -0.03,
      0.002, 0.075, -0.018, 0.308, -0.147, 0.169,
    ],
    [
      -0.109, 0.114, 0.152, -0.141, 0.038, 0.121, -0.055, -0.115, -0.227, 0.05,
      0.137, -0.211, -0.258, -0.122, -0.171, 0.127, 0.04, 0.118, -0.099, 0.178,
      -0.181, -0.041, 0.044, -0.246, -0.011, 0.07, 0.009, -0.042, 0.239, -0.081,
      -0.036, 0.011, -0.034, -0.286, -0.071, -0.04, 0.138, -0.083, 0.027,
      -0.036, -0.048, 0.204, -0.243, 0.096, 0.051, -0.009, -0.05, -0.143, 0.199,
      0.033, -0.24, -0.182, -0.102, 0.148, -0.009, -0.106, -0.092, -0.068,
      0.006, 0.094, -0.215, 0.264, -0.103, -0.358, -0.328, -0.032, 0.098,
      -0.402, 0.082, -0.054, 0.28, -0.068, 0.057, 0.135, -0.235, -0.009, -0.201,
      0.208, 0.246, 0.112, -0.245, -0.23, -0.087, -0.057,
    ],
    [
      0.063, -0.064, 0.229, -0.084, 0.136, 0.035, -0.019, 0.101, 0.05, -0.241,
      -0.143, -0.054, -0.071, 0.052, 0.037, -0.106, 0.074, 0.06, 0.049, -0.119,
      0.077, -0.163, 0.071, -0.048, -0.111, 0.179, 0.249, 0.169, -0.329, 0.227,
      0.091, 0.043, -0.144, -0.274, -0.147, 0.145, -0.05, -0.195, 0.344, -0.18,
      -0.197, -0.078, 0.165, -0.106, 0.185, -0.009, -0.233, -0.207, 0.066,
      -0.163, -0.182, -0.167, 0.096, 0.153, -0.085, -0.038, 0.136, -0.021,
      0.118, -0.047, 0.073, 0.021, 0.217, -0.064, 0.166, 0.058, -0.081, -0.026,
      -0.009, -0.05, 0.092, -0.079, 0.055, -0.189, 0.005, -0.079, 0.138, 0.282,
      0.2, 0.007, -0.196, 0.229, -0.087, -0.011,
    ],
    [
      -0.066, 0.376, -0.142, -0.086, 0.031, -0.032, 0.028, -0.185, 0.065, 0.083,
      -0.072, 0.053, -0.002, 0.084, -0.039, -0.108, 0.035, 0.095, 0.071, 0.127,
      0.092, 0.044, 0.018, -0.114, 0.114, -0.047, 0.14, -0.102, -0.212, -0.084,
      0.012, 0.042, -0.045, 0.2, 0.083, 0.359, -0.026, 0.018, -0.012, -0.135,
      -0.27, -0.055, -0.09, -0.16, -0.191, -0.065, 0.069, 0.014, -0.115, -0.01,
      -0.059, 0.04, -0.14, -0.01, -0.03, 0.091, -0.031, 0.178, 0.101, 0.071,
      -0.018, 0.058, 0.077, -0.056, -0.081, 0.118, -0.016, 0.172, 0.013, -0.087,
      -0.231, -0.021, 0.007, 0.112, 0.122, 0.049, 0.081, 0.094, -0.128, -0.243,
      0.07, 0.205, -0.113, -0.145,
    ],
    [
      -0.15, 0.208, 0.191, 0.062, 0.121, -0.211, 0.234, -0.153, -0.347, 0.108,
      0.113, -0.17, 0.137, -0.109, -0.009, -0.09, -0.075, 0.064, 0.021, 0.149,
      -0.039, -0.271, -0.112, 0.294, 0.078, -0.126, 0.366, 0.247, -0.187, 0.128,
      0.003, 0.037, -0.087, 0.086, -0.137, -0.196, -0.021, 0.083, -0.06, 0.176,
      0.071, -0.251, 0.097, 0.242, 0.038, 0.149, -0.029, 0.181, -0.168, -0.188,
      0.095, 0.008, 0.432, -0.122, -0.028, 0.2, 0.115, 0.106, 0.119, -0.083,
      -0.039, 0.172, -0.027, 0.161, -0.079, -0.078, -0.187, -0.045, 0.046,
      -0.145, -0.028, 0.327, -0.169, 0.144, -0.038, -0.071, -0.016, 0.16,
      -0.158, -0.13, -0.015, 0.301, 0.393, -0.065,
    ],
    [
      0.111, 0.215, 0.215, -0.097, -0.024, -0.225, -0.028, -0.165, 0.172,
      -0.093, 0.242, -0.043, -0.041, -0.045, -0.117, -0.08, -0.369, 0.328,
      -0.037, 0.301, 0.04, -0.027, -0.007, -0.103, 0.027, 0.024, -0.066, -0.111,
      -0.147, 0.226, -0.209, 0.005, -0.003, -0.237, 0.254, 0.248, -0.065,
      -0.128, -0.312, -0.258, -0.108, -0.103, 0.154, -0.078, 0.118, -0.147,
      0.287, 0.197, -0.308, -0.054, 0.199, -0.241, -0.207, -0.271, 0.002,
      -0.199, 0.108, 0.31, -0.172, 0.054, -0.103, 0.095, -0.1, 0.087, -0.099,
      0.011, 0.122, 0.004, 0.035, -0.039, 0.256, -0.243, 0.113, 0.031, -0.057,
      0.104, -0.137, 0.211, -0.083, -0.161, 0.152, 0.092, 0.088, -0.111,
    ],
    [
      0.075, 0.15, 0.011, -0.132, 0.119, 0.018, -0.16, 0.084, 0.009, 0.042,
      -0.018, -0.078, 0.04, 0.12, 0.076, 0.01, 0.001, 0.056, -0.026, 0.198,
      0.044, -0.158, -0.281, 0.087, -0.032, -0.008, 0.078, 0.172, -0.044, 0.06,
      -0.217, 0.071, -0.136, -0.025, 0.011, 0.235, -0.323, -0.055, 0.019,
      -0.051, -0.168, 0.206, 0.049, 0.06, -0.033, -0.045, 0.074, 0.079, 0.006,
      -0.034, -0.225, -0.037, 0.274, -0.062, -0.034, 0.173, 0.05, 0.042, 0.011,
      0.042, -0.061, 0.188, -0.052, -0.089, -0.05, 0.094, -0.076, 0.053, 0.104,
      -0.034, 0.179, -0.08, 0.041, -0.106, 0.064, -0.038, -0.008, 0.062, 0.083,
      -0.122, -0.079, 0.303, -0.094, -0.138,
    ],
    [
      0.178, -0.2, 0.228, 0.008, 0.149, 0.104, 0.01, -0.059, -0.001, -0.016,
      0.143, -0.096, -0.216, 0.019, -0.103, 0.037, 0.171, 0.223, 0.105, -0.134,
      -0.238, -0.188, -0.02, -0.087, -0.219, -0.115, 0.173, 0.014, 0.048, 0.166,
      0.092, 0.155, -0.2, 0.086, 0.22, 0.189, 0.028, -0.147, -0.076, -0.049,
      -0.223, -0.06, 0.218, -0.082, -0.022, -0.24, -0.07, -0.183, -0.089,
      -0.223, -0.143, 0.142, 0.079, -0.111, -0.073, -0.02, -0.024, 0.067, 0.136,
      0.192, 0.074, 0.108, 0.174, 0.06, -0.159, -0.03, 0.043, -0.154, 0.131,
      0.11, 0.063, 0.148, -0.023, 0.015, -0.088, -0.007, 0.073, 0.117, 0.038,
      -0.011, -0.204, -0.024, 0.219, -0.112,
    ],
    [
      -0.105, 0.343, 0.25, -0.13, 0.142, 0.11, 0.175, -0.278, -0.105, -0.066,
      0.085, -0.098, -0.026, -0.09, 0.044, 0.003, -0.142, -0.188, -0.079,
      -0.006, -0.103, 0.049, 0.116, -0.197, -0.207, 0.154, 0.188, -0.255,
      -0.003, -0.087, -0.119, 0.132, 0.177, -0.233, -0.201, -0.204, -0.011,
      0.014, -0.065, 0.13, 0.386, -0.339, -0.111, -0.026, 0.177, 0.14, 0.276,
      -0.052, 0.055, 0.187, 0.179, 0.077, -0.17, -0.147, -0.149, -0.076, 0.007,
      0.137, -0.286, -0.047, -0.182, 0.294, 0.047, -0.022, 0.067, 0.044, -0.008,
      -0.058, -0.111, 0.079, 0.162, -0.039, 0.091, 0.129, -0.137, 0.015, -0.197,
      0.114, 0.208, 0.176, -0.155, 0.09, -0.11, -0.019,
    ],
    [
      0.128, 0.029, 0.065, 0.047, -0.282, -0.071, 0.002, -0.222, -0.02, -0.322,
      0.007, 0.169, -0.004, -0.029, -0.024, 0.013, 0.168, 0.201, 0.137, -0.127,
      -0.095, 0.038, -0.221, -0.215, 0.001, -0.104, -0.082, 0.096, 0.235, 0.006,
      -0.203, 0.159, 0.041, 0.097, 0.103, 0.225, 0.102, -0.114, -0.041, -0.163,
      0.123, 0.073, 0.124, -0.04, -0.1, 0.139, 0.069, 0.11, 0.009, 0.211, 0.179,
      -0.208, -0.044, 0.17, -0.183, -0.014, -0.143, -0.112, 0.29, -0.218, -0.02,
      0.027, 0.163, -0.086, -0.107, -0.049, 0.149, -0.198, 0.117, 0.055, -0.009,
      -0.147, -0.032, -0.126, 0.014, 0.058, -0.228, 0.222, 0.065, -0.267,
      -0.137, 0.19, -0.138, -0.227,
    ],
    [
      -0.136, 0.324, 0.315, 0.01, -0.06, -0.099, -0.017, 0.051, -0.249, 0.062,
      -0.123, 0.032, 0.099, 0.112, 0.161, -0.09, -0.098, -0.066, 0.109, 0.21,
      0.048, -0.002, 0.153, 0.158, -0.204, 0.041, -0.046, 0.074, -0.243, -0.152,
      -0.13, -0.034, 0.136, -0.337, -0.171, -0.053, 0.04, 0.091, -0.139, 0.026,
      0.007, -0.202, 0.069, 0.039, 0.01, 0.177, 0.125, 0.017, 0.189, 0.037,
      -0.102, 0.178, -0.135, -0.029, 0.095, 0.28, 0.07, -0.134, -0.172, -0.271,
      -0.055, -0.051, -0.027, 0.236, 0.228, 0.31, -0.174, 0.211, 0.097, -0.15,
      -0.104, -0.058, -0.096, 0.064, -0.024, -0.041, 0.041, -0.045, -0.203,
      0.044, 0.136, -0.027, -0.164, 0.116,
    ],
    [
      -0.157, -0.109, 0.26, 0.016, 0.2, -0.243, -0.026, 0.008, -0.042, -0.15,
      -0.034, -0.056, -0.005, -0.025, 0.209, 0.091, -0.246, 0.068, -0.07, 0.158,
      0.007, 0.113, 0.072, 0.129, 0.036, 0.142, -0.139, -0.098, -0.156, 0.264,
      -0.03, 0.082, -0.204, -0.281, -0.127, -0.176, -0.064, -0.192, -0.023,
      0.133, -0.085, 0.012, 0.244, 0.152, 0.034, -0.152, 0.135, -0.213, 0.051,
      -0.101, 0.206, -0.201, 0.331, -0.014, 0.106, -0.041, 0.11, -0.09, -0.192,
      -0.201, 0.011, -0.061, 0.069, 0.032, 0.225, -0.16, 0.078, -0.118, 0.065,
      -0.193, 0.325, -0.049, -0.038, -0.151, -0.035, 0.088, -0.101, 0.185,
      0.174, 0.054, -0.103, -0.085, -0.004, -0.097,
    ],
    [
      -0.19, -0.139, -0.045, 0.0, -0.173, -0.079, 0.237, 0.326, -0.051, 0.152,
      -0.11, 0.063, 0.041, -0.054, 0.149, 0.169, -0.039, -0.282, -0.04, 0.114,
      0.185, 0.256, -0.048, 0.132, -0.161, 0.151, 0.195, 0.069, 0.075, -0.079,
      -0.112, -0.053, 0.268, 0.169, 0.107, 0.062, 0.0, 0.206, 0.245, 0.536,
      -0.197, -0.025, -0.075, 0.3, -0.181, 0.278, 0.031, 0.203, -0.087, -0.026,
      -0.252, 0.029, 0.47, -0.076, 0.152, 0.067, 0.01, -0.314, 0.023, -0.325,
      -0.08, 0.038, -0.045, -0.03, 0.015, 0.066, -0.167, 0.123, -0.213, -0.173,
      0.115, 0.176, -0.253, -0.068, -0.244, -0.271, 0.16, 0.018, -0.228, -0.077,
      0.257, 0.325, -0.072, -0.007,
    ],
    [
      -0.133, -0.127, 0.03, 0.19, -0.109, -0.164, -0.099, -0.062, 0.158, -0.144,
      0.065, -0.021, 0.031, -0.126, 0.214, -0.065, 0.079, 0.01, -0.169, 0.068,
      -0.087, 0.197, -0.044, -0.049, -0.084, 0.053, -0.0, 0.161, 0.078, -0.148,
      0.032, -0.089, 0.095, -0.192, -0.005, 0.047, -0.015, -0.017, 0.051, 0.119,
      -0.232, 0.379, 0.228, 0.23, -0.239, -0.045, -0.152, -0.192, -0.042,
      -0.145, -0.153, -0.146, 0.084, 0.217, -0.096, -0.078, -0.084, -0.152,
      0.38, 0.123, 0.129, -0.201, -0.109, 0.014, 0.25, 0.001, -0.128, -0.124,
      0.149, -0.177, 0.09, -0.009, -0.142, -0.083, -0.072, -0.261, 0.094, 0.037,
      0.077, 0.316, -0.11, 0.21, -0.0, 0.036,
    ],
    [
      0.026, -0.201, 0.017, 0.043, -0.221, -0.095, -0.057, -0.14, -0.15, 0.07,
      0.118, 0.004, -0.135, 0.203, 0.03, -0.003, -0.231, 0.192, 0.101, 0.027,
      -0.014, 0.07, -0.064, -0.109, 0.133, -0.097, -0.158, 0.173, -0.146, 0.208,
      -0.025, 0.146, -0.15, -0.098, 0.093, 0.176, -0.127, -0.16, -0.102, 0.017,
      0.191, -0.282, -0.202, -0.047, 0.067, -0.102, 0.226, -0.076, 0.016, 0.241,
      0.225, 0.282, 0.077, -0.196, 0.132, -0.076, 0.014, 0.013, -0.2, -0.073,
      -0.08, -0.22, 0.175, 0.283, 0.117, -0.128, 0.234, 0.237, 0.076, -0.101,
      0.137, -0.116, -0.057, -0.056, 0.115, -0.071, -0.047, 0.148, 0.009,
      -0.159, 0.131, -0.189, 0.042, -0.012,
    ],
    [
      0.096, -0.12, 0.263, -0.074, 0.143, 0.206, 0.108, -0.185, 0.157, -0.269,
      -0.132, 0.132, 0.041, 0.23, 0.062, 0.038, -0.336, 0.186, -0.018, -0.246,
      0.322, 0.098, 0.219, -0.161, -0.02, 0.095, 0.001, -0.283, -0.042, 0.09,
      0.194, 0.072, -0.085, -0.394, -0.079, -0.277, 0.125, -0.048, -0.037,
      -0.25, -0.441, -0.101, -0.146, -0.219, 0.228, -0.132, -0.035, -0.12,
      0.069, -0.11, 0.096, -0.115, -0.288, 0.18, 0.152, 0.145, 0.014, -0.113,
      -0.207, -0.158, 0.057, -0.154, 0.205, -0.04, -0.017, -0.06, 0.06, 0.082,
      -0.018, -0.017, -0.212, 0.03, -0.058, 0.079, 0.205, -0.024, -0.03, 0.125,
      -0.163, -0.244, 0.026, 0.158, -0.013, 0.003,
    ],
    [
      -0.141, 0.219, -0.242, -0.157, 0.067, 0.151, 0.136, 0.046, -0.08, 0.163,
      0.031, -0.088, 0.175, -0.075, 0.059, 0.016, -0.008, -0.117, 0.063, 0.017,
      0.201, 0.105, 0.057, 0.126, 0.017, 0.095, -0.229, 0.059, -0.148, -0.022,
      0.106, -0.043, -0.072, 0.209, -0.151, -0.026, -0.012, -0.041, -0.117,
      -0.065, 0.118, -0.186, 0.113, 0.005, 0.009, -0.019, -0.024, 0.074, 0.019,
      -0.051, 0.123, 0.172, 0.196, 0.128, 0.056, 0.02, 0.041, -0.073, -0.147,
      0.112, -0.015, 0.154, -0.012, -0.009, 0.03, 0.242, -0.224, 0.108, -0.074,
      0.094, 0.15, -0.034, 0.103, 0.198, 0.142, 0.188, -0.053, 0.09, -0.045,
      -0.26, 0.317, 0.218, 0.209, 0.059,
    ],
    [
      0.231, 0.203, -0.199, -0.077, 0.258, 0.146, -0.042, 0.077, 0.226, -0.001,
      -0.164, 0.043, 0.006, 0.187, -0.076, 0.251, -0.179, -0.275, 0.126, 0.191,
      0.21, 0.018, -0.103, 0.141, 0.047, -0.135, 0.026, -0.157, 0.153, 0.062,
      -0.146, -0.118, -0.061, -0.074, 0.221, -0.203, -0.001, -0.008, -0.15,
      0.23, -0.022, -0.151, 0.026, 0.29, 0.151, 0.119, 0.081, 0.216, 0.239,
      0.103, 0.27, 0.171, -0.368, -0.194, 0.104, 0.317, -0.189, -0.197, -0.083,
      0.007, -0.024, -0.03, -0.089, -0.065, -0.073, 0.139, 0.184, -0.002,
      -0.162, 0.055, 0.024, -0.228, -0.1, 0.013, 0.03, 0.012, -0.143, 0.003,
      0.028, -0.112, 0.226, -0.133, -0.092, -0.096,
    ],
    [
      0.148, -0.099, 0.219, -0.182, -0.107, 0.181, -0.016, -0.064, -0.159,
      0.041, 0.079, -0.145, 0.018, 0.096, -0.052, -0.168, 0.258, 0.004, 0.128,
      -0.284, 0.007, -0.252, 0.015, 0.063, -0.206, 0.041, 0.318, -0.061, -0.273,
      -0.131, 0.02, 0.138, -0.252, -0.016, 0.033, 0.067, -0.171, 0.019, 0.146,
      -0.001, -0.211, -0.099, -0.201, 0.184, 0.241, 0.077, -0.039, -0.085,
      -0.233, 0.249, 0.028, -0.11, 0.263, -0.172, -0.183, 0.061, -0.066, 0.037,
      0.283, 0.064, -0.042, 0.155, 0.142, 0.184, -0.195, -0.086, 0.089, -0.158,
      0.143, 0.067, -0.309, 0.017, -0.032, 0.099, 0.006, -0.083, -0.124, 0.333,
      -0.184, 0.128, -0.272, 0.055, 0.16, -0.045,
    ],
    [
      0.188, 0.182, 0.216, -0.102, 0.22, -0.165, -0.035, -0.137, 0.055, -0.044,
      0.067, -0.003, 0.058, -0.108, 0.211, -0.127, -0.134, 0.089, -0.158, 0.243,
      -0.202, 0.014, -0.194, -0.207, -0.005, 0.211, 0.133, -0.183, 0.062, 0.056,
      0.002, 0.002, 0.258, -0.353, 0.032, 0.098, -0.092, 0.011, 0.016, 0.033,
      0.007, -0.03, 0.162, -0.259, -0.089, -0.029, 0.091, -0.012, 0.063, -0.117,
      -0.278, -0.143, -0.227, -0.301, -0.166, -0.115, 0.216, 0.217, -0.169,
      0.114, -0.078, 0.136, 0.041, -0.254, 0.073, -0.156, -0.103, 0.021, -0.046,
      -0.105, 0.272, -0.12, 0.006, 0.014, 0.172, 0.336, 0.069, -0.015, -0.006,
      -0.089, -0.127, 0.129, -0.258, -0.282,
    ],
    [
      0.092, -0.122, -0.104, -0.088, -0.272, 0.088, 0.022, -0.12, -0.038, 0.015,
      0.029, -0.013, 0.077, 0.074, -0.109, 0.066, 0.128, 0.191, 0.078, -0.096,
      0.145, -0.03, 0.022, 0.051, -0.083, -0.138, -0.125, -0.014, 0.05, -0.011,
      0.226, -0.011, 0.189, 0.256, 0.224, 0.065, 0.135, 0.134, -0.116, -0.224,
      -0.221, 0.186, -0.006, -0.079, 0.112, -0.146, 0.122, 0.116, 0.213, 0.048,
      0.133, 0.184, 0.199, 0.023, 0.003, -0.134, -0.14, 0.125, -0.148, 0.05,
      -0.094, 0.119, -0.053, -0.049, -0.062, 0.032, -0.03, 0.012, -0.016, 0.229,
      0.071, 0.251, 0.168, 0.074, -0.098, 0.072, -0.104, 0.03, 0.045, 0.056,
      -0.09, -0.191, 0.177, 0.018,
    ],
    [
      0.157, -0.175, -0.161, 0.102, -0.065, 0.144, 0.178, -0.218, 0.05, -0.155,
      -0.071, 0.105, 0.127, 0.142, -0.132, 0.019, 0.076, 0.165, 0.22, -0.243,
      -0.241, -0.198, -0.054, 0.094, -0.087, -0.191, 0.078, 0.075, 0.248, 0.079,
      -0.133, -0.064, -0.146, 0.277, 0.221, -0.016, -0.109, 0.077, -0.046,
      0.308, 0.313, -0.237, 0.031, 0.295, -0.167, 0.166, 0.022, 0.122, -0.198,
      -0.278, 0.257, -0.019, -0.048, 0.297, 0.28, 0.185, -0.156, 0.191, 0.43,
      0.127, 0.24, -0.088, 0.121, 0.253, -0.189, -0.288, 0.141, -0.075, -0.167,
      -0.158, 0.176, 0.166, -0.26, 0.002, -0.053, 0.029, -0.098, 0.012, -0.115,
      -0.271, 0.105, 0.031, 0.175, -0.058,
    ],
    [
      0.124, 0.108, 0.06, 0.144, 0.174, 0.209, -0.019, 0.152, -0.19, 0.04,
      -0.178, -0.093, 0.012, -0.07, 0.06, 0.103, 0.199, 0.067, 0.017, -0.08,
      -0.051, -0.151, 0.156, 0.014, 0.109, -0.009, -0.011, -0.127, 0.18, -0.136,
      0.166, -0.099, 0.034, -0.14, -0.183, 0.076, 0.114, -0.023, 0.053, 0.009,
      -0.208, 0.216, -0.078, 0.162, -0.017, -0.058, -0.256, 0.087, 0.079,
      -0.028, -0.264, -0.124, 0.19, 0.317, 0.108, 0.149, -0.053, 0.075, 0.385,
      0.137, -0.026, 0.007, 0.078, -0.175, -0.029, -0.251, 0.041, -0.119, 0.028,
      -0.072, 0.102, 0.046, 0.018, -0.173, 0.094, 0.069, 0.13, 0.012, 0.323,
      0.007, -0.201, 0.01, -0.191, 0.083,
    ],
    [
      0.175, 0.016, -0.199, -0.022, -0.018, -0.016, -0.184, -0.105, 0.022,
      0.106, 0.245, 0.062, -0.09, 0.303, -0.205, -0.044, -0.196, 0.004, -0.201,
      -0.217, 0.224, 0.124, 0.132, -0.11, 0.045, -0.216, -0.043, 0.004, 0.234,
      0.03, 0.19, 0.004, 0.347, 0.125, 0.108, -0.008, -0.214, 0.11, -0.105,
      -0.132, -0.046, -0.03, -0.012, 0.123, -0.207, -0.052, 0.097, -0.134,
      -0.114, -0.142, 0.155, 0.233, -0.055, -0.091, -0.002, 0.075, 0.105, 0.175,
      0.144, 0.017, 0.047, 0.04, -0.118, 0.196, -0.002, -0.172, -0.032, -0.015,
      -0.16, 0.136, 0.033, 0.112, -0.153, -0.05, -0.035, -0.204, 0.021, -0.224,
      -0.116, 0.098, 0.188, -0.065, 0.101, -0.069,
    ],
    [
      -0.222, 0.071, -0.1, 0.15, -0.264, 0.015, 0.088, 0.195, -0.094, 0.272,
      0.094, -0.187, -0.112, -0.203, 0.343, -0.015, 0.032, -0.185, 0.092, 0.014,
      -0.145, 0.243, -0.218, 0.331, -0.029, -0.115, 0.114, 0.24, -0.089, 0.024,
      -0.282, 0.033, 0.016, 0.356, -0.113, -0.133, -0.269, 0.198, -0.086,
      -0.093, 0.307, 0.031, -0.008, 0.249, -0.018, -0.031, -0.247, 0.125,
      -0.275, -0.126, -0.064, -0.172, 0.183, -0.206, 0.207, -0.162, -0.076,
      0.02, 0.079, -0.076, 0.003, -0.122, -0.07, 0.139, -0.092, -0.011, -0.123,
      0.21, -0.064, -0.245, 0.059, -0.028, -0.14, 0.054, -0.053, -0.072, 0.081,
      -0.1, -0.22, 0.185, 0.126, 0.092, 0.037, 0.113,
    ],
    [
      -0.15, 0.107, 0.089, -0.06, 0.032, 0.089, -0.026, 0.145, -0.011, 0.037,
      -0.096, -0.02, -0.1, -0.114, -0.054, -0.063, -0.25, -0.246, 0.034, 0.194,
      -0.061, 0.058, -0.108, 0.237, 0.099, 0.12, 0.169, -0.083, 0.166, -0.066,
      -0.218, -0.081, 0.039, 0.073, 0.144, 0.002, -0.134, 0.167, -0.179, 0.146,
      0.083, 0.075, 0.075, -0.006, -0.104, 0.076, -0.059, -0.001, -0.103,
      -0.092, -0.081, 0.115, -0.157, -0.13, 0.042, -0.158, -0.064, 0.15, -0.186,
      -0.11, -0.009, 0.175, -0.094, 0.146, -0.18, 0.209, 0.022, 0.038, -0.188,
      0.133, 0.157, 0.044, -0.062, 0.117, -0.17, -0.176, 0.115, -0.013, -0.062,
      0.129, 0.092, 0.073, -0.209, 0.056,
    ],
    [
      -0.05, 0.139, -0.091, 0.095, -0.263, 0.12, 0.04, 0.156, -0.105, 0.191,
      -0.068, -0.108, 0.047, -0.025, 0.046, -0.039, 0.086, -0.026, -0.05, 0.193,
      -0.081, 0.039, -0.19, 0.113, 0.099, -0.153, 0.044, 0.297, 0.163, 0.052,
      0.028, 0.127, -0.066, 0.134, 0.052, 0.213, 0.167, 0.238, -0.081, -0.049,
      0.171, 0.18, 0.078, -0.055, -0.253, -0.19, -0.298, 0.244, -0.199, -0.012,
      -0.193, -0.038, -0.116, 0.069, -0.163, -0.02, 0.07, 0.132, -0.181, -0.353,
      -0.202, -0.066, 0.189, -0.106, -0.02, 0.111, 0.084, 0.147, -0.031, 0.158,
      -0.107, -0.021, 0.061, -0.149, 0.245, -0.096, 0.144, -0.152, 0.122,
      -0.115, 0.003, 0.282, 0.025, 0.16,
    ],
    [
      -0.136, -0.184, -0.1, 0.07, -0.209, 0.097, -0.069, -0.017, 0.076, 0.001,
      0.01, -0.11, -0.219, 0.272, 0.038, 0.175, -0.07, -0.038, 0.079, -0.157,
      0.02, 0.203, 0.077, -0.165, -0.048, 0.08, 0.075, 0.039, 0.162, 0.171,
      0.161, -0.083, -0.025, 0.048, -0.259, 0.057, 0.129, -0.07, 0.235, -0.163,
      -0.277, 0.057, -0.072, -0.117, 0.191, -0.15, 0.244, -0.184, 0.017, 0.054,
      0.287, -0.071, 0.157, 0.018, 0.01, -0.194, -0.03, 0.085, -0.132, -0.424,
      -0.028, 0.204, -0.003, 0.096, -0.009, -0.141, -0.04, -0.056, 0.12, -0.053,
      -0.005, -0.25, 0.087, -0.17, -0.183, -0.191, 0.03, 0.208, 0.299, -0.181,
      0.027, -0.016, -0.231, 0.181,
    ],
    [
      0.189, 0.083, -0.068, -0.127, -0.095, -0.027, -0.217, -0.112, 0.305,
      0.099, 0.327, 0.108, 0.07, 0.074, 0.149, -0.003, 0.092, 0.163, -0.103,
      -0.23, -0.051, -0.014, 0.048, -0.186, -0.118, -0.059, -0.191, 0.247,
      -0.065, -0.167, 0.13, 0.152, 0.168, 0.171, -0.168, 0.212, -0.025, -0.144,
      -0.15, -0.416, 0.119, -0.106, -0.12, -0.363, -0.216, -0.246, 0.125,
      -0.184, -0.02, 0.303, 0.092, -0.109, -0.12, -0.05, 0.043, -0.234, 0.118,
      0.33, 0.262, -0.015, 0.206, -0.286, 0.042, -0.128, -0.063, -0.241, -0.195,
      0.05, 0.172, -0.033, -0.287, -0.036, 0.244, -0.038, 0.199, 0.292, 0.111,
      -0.167, -0.088, 0.105, -0.095, -0.119, 0.141, -0.196,
    ],
    [
      -0.085, -0.077, -0.005, 0.001, -0.022, 0.043, -0.018, -0.061, -0.282,
      0.085, 0.025, -0.108, -0.139, 0.059, 0.198, -0.005, -0.07, -0.158, 0.132,
      0.068, 0.005, 0.051, 0.13, 0.062, -0.054, -0.198, 0.317, 0.013, -0.113,
      -0.126, -0.249, 0.012, -0.06, 0.424, -0.138, 0.05, 0.024, 0.003, -0.033,
      0.013, -0.05, -0.15, -0.138, 0.111, 0.176, -0.039, -0.004, 0.118, -0.384,
      -0.04, 0.211, -0.226, 0.194, 0.099, 0.193, -0.114, -0.214, -0.042, 0.292,
      -0.139, 0.039, -0.033, 0.186, 0.179, -0.07, -0.043, 0.027, 0.032, 0.082,
      -0.182, -0.191, -0.132, 0.115, -0.029, 0.076, -0.219, -0.067, 0.337,
      -0.192, -0.137, -0.067, -0.023, 0.183, 0.003,
    ],
    [
      -0.147, -0.06, 0.196, 0.087, -0.195, 0.191, 0.176, 0.036, -0.247, -0.235,
      -0.076, 0.072, 0.012, 0.078, 0.195, 0.05, 0.202, -0.222, 0.01, 0.064,
      -0.002, 0.093, 0.052, 0.163, -0.142, -0.012, -0.01, 0.109, -0.139, -0.246,
      0.032, -0.105, -0.017, -0.034, -0.206, -0.123, 0.271, 0.043, 0.121,
      -0.022, 0.089, 0.048, 0.086, 0.017, 0.141, 0.089, -0.295, -0.016, -0.014,
      -0.055, -0.005, 0.018, 0.087, 0.073, -0.192, 0.049, -0.106, -0.156, 0.348,
      -0.333, 0.07, -0.019, -0.169, 0.298, 0.263, 0.267, -0.288, 0.201, 0.168,
      -0.143, -0.483, 0.093, -0.092, 0.188, -0.221, -0.256, -0.153, 0.078,
      -0.057, 0.42, -0.086, 0.071, 0.024, 0.146,
    ],
    [
      -0.004, -0.213, -0.215, 0.183, -0.192, 0.08, 0.021, 0.255, -0.193, 0.015,
      -0.11, 0.108, 0.032, -0.132, 0.222, -0.043, 0.184, -0.214, -0.076, 0.138,
      0.151, 0.15, 0.064, 0.134, 0.111, 0.195, -0.281, -0.028, 0.016, -0.021,
      0.089, -0.039, 0.075, 0.089, -0.373, -0.115, 0.06, 0.177, 0.085, 0.092,
      -0.154, 0.047, -0.195, 0.21, -0.194, 0.225, -0.245, -0.062, 0.106, -0.133,
      -0.232, -0.09, 0.126, 0.22, 0.167, 0.11, 0.097, -0.323, -0.04, 0.115,
      0.098, -0.061, -0.151, -0.201, 0.088, 0.064, -0.312, -0.001, 0.03, -0.104,
      -0.064, 0.022, 0.049, -0.144, -0.136, -0.086, 0.216, -0.027, -0.291,
      -0.003, 0.037, 0.114, -0.21, 0.079,
    ],
    [
      0.059, -0.211, 0.226, -0.125, 0.036, -0.067, 0.317, -0.092, 0.243, -0.191,
      -0.11, 0.156, 0.13, 0.19, 0.029, -0.236, 0.06, -0.032, -0.143, -0.217,
      0.171, 0.053, 0.238, 0.012, -0.048, 0.1, 0.384, -0.037, -0.082, -0.175,
      0.113, 0.109, 0.302, -0.145, 0.248, -0.133, 0.099, 0.108, 0.061, 0.051,
      0.157, -0.503, 0.221, -0.139, 0.063, 0.167, -0.151, -0.038, 0.19, -0.141,
      0.028, 0.148, -0.221, 0.099, -0.301, 0.003, 0.14, 0.023, -0.101, -0.262,
      0.162, 0.084, -0.112, -0.128, -0.012, 0.046, -0.055, -0.019, -0.125,
      0.141, -0.119, 0.308, -0.106, 0.06, -0.08, 0.016, 0.138, -0.177, -0.161,
      -0.031, 0.177, 0.251, -0.021, 0.0,
    ],
    [
      -0.151, -0.393, -0.054, 0.305, -0.162, -0.256, 0.135, -0.025, 0.134,
      -0.098, -0.137, -0.016, 0.145, 0.176, 0.026, 0.035, 0.028, 0.041, 0.149,
      0.07, 0.163, 0.111, -0.129, 0.101, -0.066, 0.016, -0.177, 0.146, 0.122,
      -0.082, 0.269, -0.126, 0.102, 0.163, -0.083, 0.092, 0.133, 0.022, 0.116,
      0.08, 0.071, -0.125, 0.034, -0.265, -0.367, 0.167, 0.114, 0.051, 0.151,
      0.105, 0.092, 0.346, 0.425, 0.056, 0.172, -0.077, 0.018, -0.015, 0.344,
      -0.156, -0.025, 0.058, -0.06, 0.139, 0.254, 0.068, -0.104, 0.214, -0.258,
      0.193, 0.194, 0.094, -0.127, 0.06, -0.022, 0.064, 0.095, -0.102, 0.133,
      0.285, 0.099, -0.052, 0.125, 0.057,
    ],
    [
      0.121, 0.103, 0.06, -0.022, 0.313, 0.004, -0.052, 0.214, -0.02, 0.086,
      -0.05, -0.053, 0.005, 0.087, 0.204, -0.18, -0.098, -0.268, -0.284, -0.046,
      -0.007, 0.06, 0.04, -0.012, -0.087, 0.039, -0.066, -0.107, 0.146, -0.129,
      0.24, -0.046, 0.197, -0.213, -0.041, -0.122, -0.128, 0.219, 0.02, 0.334,
      0.083, 0.029, -0.193, 0.008, 0.031, 0.012, -0.021, -0.112, 0.22, 0.174,
      -0.015, 0.312, 0.017, -0.291, -0.074, 0.208, -0.026, 0.095, -0.089, -0.04,
      -0.064, 0.017, -0.1, -0.078, 0.147, 0.001, 0.081, 0.043, -0.14, 0.127,
      -0.187, 0.162, -0.141, 0.072, -0.198, -0.042, 0.032, -0.102, -0.04, 0.25,
      0.022, 0.014, 0.126, 0.206,
    ],
    [
      0.262, -0.013, 0.227, -0.096, 0.221, 0.258, -0.077, -0.166, -0.38, -0.193,
      -0.063, -0.121, -0.114, 0.374, -0.099, 0.023, -0.122, -0.013, -0.113,
      0.165, -0.15, -0.095, 0.19, -0.137, 0.161, 0.011, 0.051, -0.323, 0.154,
      -0.003, -0.122, 0.144, -0.174, -0.326, 0.137, 0.156, 0.404, -0.024,
      -0.175, 0.243, -0.204, 0.209, 0.047, -0.044, 0.4, -0.411, 0.039, 0.125,
      -0.103, -0.134, -0.03, -0.195, -0.239, -0.177, 0.103, 0.014, -0.032,
      -0.003, -0.296, -0.168, -0.183, 0.026, 0.099, -0.091, -0.187, -0.17,
      0.353, -0.121, 0.003, 0.059, -0.06, -0.123, -0.164, -0.036, 0.055, 0.1,
      0.028, 0.131, 0.063, -0.227, 0.127, -0.156, -0.131, -0.085,
    ],
    [
      0.034, -0.22, -0.042, 0.002, -0.117, 0.026, 0.197, -0.222, 0.111, -0.175,
      0.042, 0.064, 0.124, -0.114, -0.035, 0.013, 0.142, 0.158, -0.067, -0.123,
      -0.059, 0.007, 0.056, -0.142, -0.06, -0.181, 0.376, -0.095, 0.189, -0.112,
      0.014, -0.125, 0.162, 0.407, 0.272, 0.253, 0.094, 0.233, -0.11, 0.013,
      -0.345, -0.165, -0.042, 0.072, -0.073, 0.009, -0.034, 0.22, -0.134,
      -0.261, -0.188, -0.066, 0.003, 0.177, 0.018, -0.078, 0.152, 0.279, 0.198,
      0.09, 0.063, 0.007, -0.06, 0.035, 0.058, -0.006, -0.021, 0.077, -0.14,
      0.004, 0.016, 0.373, -0.14, 0.013, -0.176, -0.012, 0.206, -0.006, -0.351,
      -0.278, 0.217, 0.226, 0.362, -0.146,
    ],
    [
      -0.043, 0.177, -0.093, -0.0, 0.044, 0.165, 0.099, -0.008, -0.221, -0.016,
      -0.039, 0.12, -0.099, -0.205, -0.075, 0.106, -0.009, -0.133, -0.01, 0.281,
      -0.15, -0.04, -0.131, 0.079, 0.156, -0.176, 0.2, -0.028, 0.13, 0.029,
      0.041, -0.162, 0.046, 0.135, -0.187, 0.109, -0.089, 0.106, 0.108, 0.094,
      -0.008, 0.002, -0.075, -0.073, -0.205, 0.058, -0.113, 0.23, -0.167,
      -0.052, -0.332, -0.087, -0.264, 0.007, 0.074, -0.171, -0.086, 0.053,
      0.253, -0.013, -0.032, 0.086, 0.129, 0.045, -0.143, -0.018, 0.049, -0.097,
      -0.04, -0.056, 0.328, -0.08, -0.015, -0.013, -0.103, -0.068, 0.121, 0.292,
      -0.229, 0.074, -0.015, 0.143, -0.065, 0.121,
    ],
    [
      0.039, -0.013, -0.017, 0.049, -0.101, 0.074, 0.134, -0.125, -0.002,
      -0.007, 0.057, -0.055, -0.187, -0.03, -0.139, -0.085, 0.153, 0.031, 0.164,
      -0.117, -0.04, 0.049, 0.031, -0.154, -0.062, -0.142, 0.024, -0.173, 0.089,
      -0.19, -0.038, 0.162, 0.002, 0.047, 0.291, -0.051, 0.166, 0.084, -0.099,
      0.141, 0.056, 0.119, -0.173, 0.286, -0.052, -0.073, -0.133, 0.075, 0.005,
      0.13, 0.096, 0.037, 0.094, 0.046, 0.081, -0.041, -0.149, -0.132, 0.003,
      0.165, -0.089, -0.026, -0.025, -0.168, -0.131, -0.055, 0.256, -0.208,
      0.095, -0.137, -0.121, 0.083, 0.075, -0.016, -0.172, -0.08, -0.061,
      -0.044, -0.007, -0.033, -0.127, 0.165, 0.17, -0.053,
    ],
    [
      -0.129, 0.022, 0.202, 0.006, 0.0, 0.076, 0.094, 0.18, -0.206, -0.065,
      -0.088, -0.189, -0.096, 0.208, 0.139, 0.014, 0.112, -0.126, 0.047, 0.056,
      0.099, -0.035, -0.018, 0.162, -0.228, 0.21, 0.16, -0.08, 0.028, 0.105,
      -0.098, 0.007, 0.198, -0.167, -0.262, -0.109, 0.166, -0.043, -0.024,
      0.082, 0.065, -0.115, 0.114, -0.254, 0.114, -0.062, 0.143, 0.019, 0.089,
      0.161, -0.41, 0.157, -0.029, -0.066, 0.037, 0.11, 0.107, 0.082, -0.487,
      -0.337, 0.035, 0.169, -0.109, 0.126, 0.273, 0.078, -0.225, 0.137, -0.09,
      -0.116, 0.043, 0.085, -0.171, 0.22, -0.078, -0.122, -0.054, 0.201, 0.045,
      0.064, -0.027, 0.114, -0.025, 0.144,
    ],
    [
      0.107, -0.105, -0.121, -0.078, -0.094, 0.061, -0.127, -0.112, 0.081,
      -0.15, 0.055, 0.057, 0.154, 0.393, -0.199, -0.108, -0.075, 0.025, -0.031,
      0.044, 0.089, 0.038, 0.255, -0.112, -0.088, -0.019, -0.079, 0.095, -0.242,
      0.015, 0.148, -0.006, 0.018, -0.023, 0.198, 0.295, 0.11, 0.103, 0.026,
      -0.001, -0.167, 0.177, 0.236, -0.21, 0.053, -0.024, -0.111, -0.186, 0.112,
      -0.096, -0.114, 0.196, -0.065, 0.046, 0.051, -0.035, -0.057, 0.053, 0.176,
      0.065, 0.134, 0.059, 0.077, 0.029, 0.132, 0.073, -0.063, 0.23, 0.107,
      0.024, 0.003, 0.09, -0.078, 0.116, -0.156, -0.102, -0.094, 0.068, -0.174,
      -0.23, 0.122, 0.019, -0.03, -0.02,
    ],
    [
      0.118, 0.186, 0.233, -0.242, 0.15, -0.104, 0.031, 0.047, -0.079, 0.1,
      -0.165, -0.064, 0.006, 0.008, 0.082, -0.188, -0.102, 0.009, -0.147, 0.034,
      0.004, 0.076, 0.004, 0.2, 0.131, 0.257, -0.038, -0.075, -0.064, 0.102,
      -0.008, 0.111, 0.093, -0.265, -0.116, -0.301, -0.004, -0.196, 0.088, 0.04,
      0.092, 0.044, 0.041, 0.116, 0.187, 0.127, 0.004, 0.06, 0.148, -0.107,
      -0.043, -0.128, -0.057, -0.114, -0.193, -0.014, 0.139, 0.096, -0.296,
      -0.108, -0.13, -0.037, -0.121, -0.164, 0.104, 0.151, -0.14, -0.006, 0.003,
      -0.015, 0.091, -0.012, 0.143, 0.094, 0.052, -0.015, 0.099, -0.144, 0.215,
      0.076, -0.166, 0.234, -0.24, 0.053,
    ],
    [
      -0.159, -0.378, 0.14, -0.059, 0.028, 0.107, 0.254, 0.002, 0.019, -0.067,
      -0.139, -0.036, 0.005, 0.104, 0.109, 0.065, 0.192, 0.021, 0.051, -0.014,
      0.104, 0.054, 0.064, 0.033, -0.168, 0.084, 0.134, -0.133, 0.301, -0.061,
      0.066, -0.074, 0.365, 0.047, 0.039, -0.167, 0.246, 0.211, 0.143, 0.198,
      -0.048, -0.17, -0.233, -0.087, -0.171, 0.123, 0.018, 0.054, 0.049, -0.182,
      -0.252, 0.072, 0.124, 0.098, -0.062, 0.011, -0.045, -0.0, -0.155, -0.353,
      0.137, -0.005, -0.152, -0.117, 0.274, 0.055, -0.159, -0.052, -0.208,
      0.063, -0.204, 0.231, -0.132, 0.196, -0.14, -0.159, -0.018, -0.133, -0.03,
      0.145, 0.113, 0.052, -0.213, 0.197,
    ],
    [
      -0.04, -0.032, 0.175, -0.186, 0.238, -0.044, -0.009, -0.125, -0.148,
      0.031, 0.187, -0.072, -0.123, -0.104, -0.088, -0.135, -0.188, -0.026,
      -0.019, -0.153, -0.055, -0.079, -0.115, 0.244, -0.035, -0.1, 0.02, -0.156,
      0.102, 0.146, -0.244, 0.072, -0.059, -0.111, 0.199, -0.365, -0.018,
      -0.084, -0.055, 0.182, 0.206, -0.028, 0.032, 0.189, 0.106, 0.041, -0.092,
      0.071, 0.047, -0.204, 0.359, 0.016, 0.342, -0.092, 0.066, 0.101, -0.019,
      -0.02, -0.193, 0.036, 0.041, -0.01, 0.08, 0.031, -0.312, -0.035, 0.137,
      -0.301, 0.084, -0.194, 0.103, 0.09, -0.055, 0.129, 0.032, -0.232, -0.055,
      0.052, 0.211, 0.195, -0.122, -0.249, 0.204, 0.135,
    ],
    [
      0.026, 0.037, -0.05, 0.033, -0.068, -0.099, 0.036, -0.037, 0.172, 0.035,
      0.165, 0.107, -0.148, 0.241, -0.021, -0.106, 0.043, 0.127, 0.091, -0.151,
      -0.184, -0.176, -0.056, 0.038, -0.113, -0.164, 0.071, 0.183, -0.153, 0.14,
      -0.191, 0.167, -0.049, 0.115, 0.344, 0.044, -0.224, -0.007, -0.06, 0.064,
      0.325, -0.258, 0.014, 0.084, -0.096, -0.043, 0.134, -0.026, -0.125, 0.084,
      0.23, 0.323, 0.079, -0.391, -0.104, 0.15, -0.019, 0.158, -0.004, 0.142,
      0.012, -0.003, 0.092, 0.253, -0.211, 0.027, 0.02, 0.077, -0.141, -0.04,
      0.025, 0.09, -0.137, 0.248, -0.05, -0.046, -0.182, 0.044, -0.12, -0.046,
      0.151, -0.031, 0.13, -0.252,
    ],
    [
      0.046, 0.084, -0.032, 0.082, 0.11, 0.139, 0.011, 0.058, -0.072, -0.111,
      -0.065, -0.029, -0.077, 0.127, 0.074, -0.081, -0.116, 0.052, 0.086, 0.217,
      0.084, 0.023, 0.075, -0.056, -0.082, 0.26, 0.173, -0.237, -0.021, 0.002,
      0.104, 0.05, -0.009, -0.154, -0.12, 0.058, 0.163, -0.101, 0.097, 0.026,
      0.129, 0.228, 0.058, 0.097, 0.057, 0.085, 0.004, -0.102, 0.125, 0.008,
      -0.021, 0.169, 0.054, 0.087, 0.031, 0.129, 0.122, 0.111, -0.259, -0.006,
      0.033, 0.164, 0.018, -0.109, 0.081, 0.167, 0.218, 0.024, -0.195, 0.193,
      -0.068, -0.105, -0.177, 0.199, -0.17, -0.007, 0.089, 0.055, 0.118, -0.052,
      0.097, 0.01, -0.124, -0.0,
    ],
    [
      -0.155, 0.01, -0.096, 0.11, 0.09, -0.103, 0.145, 0.019, 0.238, 0.122,
      -0.069, -0.095, 0.262, 0.11, -0.052, 0.009, 0.051, 0.007, 0.218, -0.014,
      0.062, 0.049, -0.05, 0.041, 0.051, -0.093, -0.112, 0.241, -0.012, 0.187,
      0.069, 0.008, -0.125, 0.295, 0.075, -0.102, -0.091, 0.079, -0.224, -0.151,
      0.281, 0.057, 0.005, 0.228, -0.135, 0.067, 0.071, 0.126, -0.009, -0.05,
      0.249, 0.218, 0.086, 0.097, 0.069, 0.078, -0.142, 0.072, 0.048, 0.088,
      0.03, -0.108, 0.029, 0.09, 0.08, 0.158, 0.097, 0.3, -0.009, 0.021, -0.103,
      -0.091, -0.001, 0.15, 0.109, -0.134, -0.035, 0.002, 0.014, 0.055, 0.077,
      0.078, 0.243, 0.13,
    ],
    [
      -0.073, 0.001, 0.147, 0.062, -0.338, -0.269, 0.167, -0.223, 0.184, -0.234,
      0.151, 0.073, -0.093, 0.118, -0.169, 0.169, -0.065, 0.155, 0.064, 0.137,
      -0.014, -0.051, -0.246, -0.005, -0.07, -0.011, 0.088, 0.167, 0.258, 0.145,
      -0.304, -0.015, 0.045, 0.118, 0.341, -0.066, -0.113, 0.092, -0.124, -0.07,
      0.17, -0.12, -0.063, 0.017, -0.15, 0.137, 0.196, 0.196, -0.262, -0.114,
      0.338, -0.067, -0.079, -0.145, -0.124, -0.118, -0.209, 0.25, -0.069,
      -0.266, 0.178, 0.0, 0.021, 0.32, -0.012, -0.054, 0.122, -0.016, -0.243,
      0.005, -0.059, -0.014, 0.017, -0.043, -0.04, -0.078, 0.054, 0.06, -0.09,
      -0.18, 0.245, 0.036, 0.153, -0.217,
    ],
    [
      0.044, 0.334, 0.179, 0.015, -0.113, 0.086, 0.021, 0.142, -0.29, 0.068,
      -0.051, -0.101, -0.143, -0.128, -0.036, -0.049, -0.26, 0.067, 0.078,
      0.234, 0.071, -0.009, 0.222, -0.003, 0.094, 0.173, 0.214, -0.065, -0.186,
      -0.059, 0.012, -0.034, 0.114, -0.204, -0.234, -0.321, 0.053, 0.094,
      -0.042, 0.109, 0.052, -0.268, -0.027, -0.01, -0.006, 0.099, -0.001, 0.001,
      -0.178, 0.005, 0.028, -0.137, -0.167, 0.069, -0.114, 0.211, 0.104, -0.173,
      -0.175, -0.248, 0.124, -0.111, 0.117, 0.18, -0.031, -0.047, -0.084,
      -0.162, 0.042, -0.284, -0.142, 0.144, -0.154, -0.114, -0.247, -0.037,
      0.136, 0.288, -0.117, 0.071, -0.02, 0.052, -0.25, -0.005,
    ],
    [
      0.072, -0.101, -0.317, -0.061, 0.127, -0.107, -0.131, -0.07, 0.157,
      -0.051, 0.011, 0.056, -0.085, -0.163, -0.115, 0.076, -0.134, -0.035,
      0.029, -0.07, 0.113, -0.083, -0.15, -0.11, -0.149, -0.094, 0.071, 0.062,
      -0.018, -0.032, 0.036, 0.012, -0.038, 0.082, 0.099, 0.042, -0.01, -0.001,
      -0.013, 0.022, 0.006, -0.116, -0.065, 0.24, 0.164, 0.17, 0.031, -0.022,
      0.018, 0.109, -0.013, 0.148, 0.057, -0.234, 0.072, -0.108, -0.003, -0.022,
      -0.081, 0.163, -0.069, 0.033, 0.072, 0.041, -0.245, -0.086, 0.041, -0.126,
      0.049, 0.103, -0.008, -0.073, 0.009, -0.008, -0.185, -0.178, -0.09,
      -0.056, 0.148, 0.073, -0.136, -0.147, 0.22, -0.116,
    ],
    [
      -0.149, -0.062, 0.001, 0.017, -0.021, 0.122, 0.083, 0.125, 0.089, -0.078,
      0.025, -0.041, 0.137, 0.126, 0.209, -0.144, 0.001, -0.033, 0.016, 0.072,
      0.153, 0.143, 0.06, 0.028, -0.056, 0.196, 0.13, 0.088, -0.049, 0.057, 0.0,
      -0.013, 0.088, -0.003, -0.191, -0.336, -0.062, -0.052, 0.291, 0.007,
      0.047, -0.205, 0.185, -0.092, 0.044, 0.049, -0.121, -0.057, 0.095, -0.168,
      -0.031, 0.016, 0.071, 0.008, -0.199, 0.125, 0.03, -0.049, -0.083, -0.296,
      0.058, -0.017, -0.116, 0.036, 0.176, 0.11, -0.181, 0.023, 0.001, 0.013,
      0.071, -0.009, -0.119, 0.038, 0.105, -0.184, 0.052, 0.016, 0.054, 0.045,
      0.163, 0.186, -0.213, 0.15,
    ],
    [
      0.054, -0.142, -0.133, -0.096, -0.179, 0.2, -0.167, -0.047, -0.113, 0.025,
      0.103, 0.171, 0.097, -0.168, -0.044, -0.04, 0.241, 0.01, 0.005, -0.164,
      0.246, -0.104, 0.133, 0.146, -0.204, -0.208, -0.099, 0.022, -0.392,
      -0.032, -0.139, -0.126, -0.307, 0.259, -0.091, 0.013, 0.105, -0.123, 0.34,
      -0.113, 0.006, -0.094, 0.138, 0.162, 0.126, -0.023, -0.089, -0.071,
      -0.046, -0.203, 0.084, -0.367, 0.101, 0.073, -0.31, 0.276, -0.253, -0.296,
      0.335, -0.038, 0.174, -0.182, 0.057, -0.043, -0.048, -0.022, -0.113,
      -0.116, 0.243, -0.258, -0.464, 0.069, 0.11, -0.204, 0.191, -0.083, 0.027,
      0.305, -0.113, -0.165, -0.172, -0.153, 0.176, 0.125,
    ],
    [
      -0.022, -0.282, -0.286, 0.073, 0.149, -0.087, 0.056, 0.121, 0.022, -0.05,
      0.0, 0.032, -0.259, -0.081, -0.054, 0.003, -0.161, 0.006, 0.005, 0.08,
      0.003, 0.06, 0.12, -0.193, 0.103, -0.071, 0.102, -0.151, 0.011, -0.241,
      -0.044, -0.188, 0.134, 0.358, 0.2, -0.029, -0.053, 0.199, 0.248, 0.129,
      0.03, 0.093, -0.13, 0.229, 0.008, 0.006, -0.133, -0.076, -0.143, -0.109,
      0.078, -0.038, -0.01, -0.015, 0.201, -0.171, -0.051, 0.029, -0.261, 0.107,
      0.199, 0.073, -0.074, 0.062, -0.181, -0.232, 0.172, -0.091, -0.25, -0.089,
      0.086, 0.007, -0.276, -0.029, -0.188, -0.185, 0.166, 0.161, -0.02, -0.154,
      0.138, -0.192, -0.139, -0.018,
    ],
    [
      -0.015, -0.01, 0.107, -0.167, 0.077, -0.074, -0.036, -0.16, 0.15, -0.173,
      0.158, -0.122, -0.072, 0.383, -0.214, -0.041, -0.146, 0.429, 0.071,
      -0.227, -0.074, -0.219, -0.023, 0.092, -0.071, -0.244, 0.201, 0.092,
      -0.025, 0.127, -0.095, 0.118, -0.094, -0.053, 0.281, 0.192, -0.179,
      -0.206, -0.0, -0.305, -0.005, -0.162, 0.208, -0.172, 0.069, -0.158,
      -0.065, 0.102, -0.194, -0.207, 0.393, 0.26, 0.094, -0.359, 0.144, -0.084,
      0.072, 0.31, 0.145, -0.104, -0.037, 0.065, -0.052, 0.243, -0.091, -0.248,
      0.126, 0.12, -0.081, 0.027, 0.037, -0.065, -0.123, 0.014, 0.023, -0.013,
      0.056, 0.003, 0.182, -0.099, 0.022, -0.106, 0.217, -0.064,
    ],
    [
      -0.077, -0.311, 0.021, 0.008, 0.102, -0.21, 0.2, 0.327, 0.041, -0.038,
      -0.133, 0.025, 0.037, 0.005, 0.088, -0.031, -0.051, -0.168, -0.056, 0.254,
      -0.046, 0.195, 0.085, 0.201, -0.032, 0.006, 0.089, -0.137, 0.034, -0.106,
      -0.178, -0.008, -0.027, 0.069, 0.1, -0.346, 0.001, -0.08, 0.157, 0.184,
      0.175, -0.24, 0.072, 0.19, -0.104, 0.117, -0.211, 0.112, -0.065, -0.318,
      0.035, -0.166, -0.112, 0.006, 0.206, 0.068, 0.005, -0.064, -0.03, -0.051,
      0.272, 0.055, -0.178, -0.01, 0.092, 0.111, -0.132, -0.028, -0.073, -0.088,
      -0.138, 0.056, -0.234, -0.075, -0.022, 0.05, 0.174, -0.046, -0.353,
      -0.079, 0.244, 0.102, -0.041, 0.042,
    ],
    [
      0.152, -0.085, 0.385, 0.1, -0.136, -0.291, -0.138, -0.213, 0.133, -0.211,
      -0.025, 0.123, -0.308, -0.151, 0.084, -0.059, -0.153, 0.26, 0.117, -0.15,
      -0.087, -0.146, -0.137, -0.145, -0.071, 0.057, 0.277, 0.006, -0.078,
      0.192, -0.042, -0.079, -0.262, -0.254, -0.125, -0.035, -0.124, -0.133,
      0.2, -0.305, -0.334, 0.074, -0.036, 0.136, -0.115, 0.145, -0.224, -0.253,
      -0.163, 0.013, -0.036, -0.236, -0.032, 0.225, 0.014, -0.145, -0.048,
      -0.129, 0.224, 0.181, 0.127, -0.178, -0.05, 0.165, -0.098, -0.095, -0.151,
      0.053, 0.233, -0.072, -0.044, -0.311, -0.046, -0.237, 0.172, 0.11, 0.039,
      0.024, -0.034, 0.069, -0.216, 0.149, -0.23, -0.184,
    ],
    [
      -0.052, -0.036, -0.364, 0.299, 0.322, 0.045, 0.124, 0.036, 0.264, 0.224,
      -0.136, 0.088, 0.022, -0.187, -0.079, 0.103, -0.197, -0.109, -0.165,
      -0.008, 0.13, 0.095, -0.061, -0.087, 0.016, -0.332, -0.303, -0.146, 0.069,
      -0.206, 0.321, -0.265, 0.066, 0.185, -0.089, 0.045, -0.108, 0.162, 0.139,
      0.12, -0.066, 0.047, -0.053, 0.115, -0.261, 0.152, -0.09, 0.116, 0.102,
      -0.072, -0.0, -0.2, -0.324, 0.081, 0.196, -0.056, -0.18, 0.07, 0.418,
      0.338, 0.136, -0.022, 0.033, -0.162, -0.018, 0.039, 0.029, -0.151, -0.168,
      0.002, 0.445, -0.106, -0.194, -0.2, -0.137, 0.022, 0.136, 0.054, -0.174,
      0.009, -0.048, 0.109, -0.142, 0.218,
    ],
    [
      0.098, 0.018, -0.024, -0.185, 0.19, 0.198, -0.192, 0.16, -0.141, 0.096,
      -0.009, -0.05, -0.14, 0.043, 0.109, 0.17, 0.13, -0.119, -0.019, -0.051,
      -0.005, -0.044, 0.083, 0.049, -0.162, -0.055, 0.257, 0.006, -0.189,
      -0.003, 0.003, -0.059, -0.035, -0.074, -0.118, -0.169, 0.085, 0.035,
      0.137, 0.125, -0.161, 0.115, 0.082, 0.163, 0.06, -0.1, -0.075, -0.013,
      0.096, -0.044, 0.077, 0.104, 0.275, -0.09, 0.07, -0.004, -0.141, -0.084,
      0.106, -0.165, 0.072, 0.101, 0.066, 0.07, -0.006, -0.262, 0.069, -0.069,
      0.141, -0.194, -0.076, 0.072, -0.273, 0.112, -0.095, -0.196, -0.025,
      0.165, 0.159, -0.023, -0.121, -0.161, -0.135, 0.025,
    ],
    [
      -0.053, -0.051, 0.033, 0.044, 0.138, -0.028, 0.073, -0.027, 0.182, 0.089,
      0.013, -0.025, -0.267, 0.127, -0.005, -0.078, -0.301, 0.058, 0.065,
      -0.184, 0.166, 0.03, 0.14, -0.004, 0.029, -0.065, 0.141, -0.099, 0.081,
      0.091, 0.13, -0.062, 0.031, -0.056, 0.006, -0.242, -0.26, 0.141, -0.165,
      0.266, -0.231, -0.178, -0.241, 0.052, -0.015, 0.123, 0.0, 0.039, -0.049,
      -0.011, -0.062, 0.299, -0.207, 0.087, 0.194, 0.065, -0.036, 0.185, -0.006,
      0.145, -0.033, -0.04, -0.06, -0.016, -0.07, 0.041, 0.242, 0.28, -0.041,
      0.122, -0.081, 0.018, -0.109, 0.095, -0.173, -0.004, 0.068, -0.075,
      -0.099, -0.019, 0.151, 0.067, -0.106, 0.202,
    ],
    [
      0.037, -0.223, 0.138, -0.062, 0.08, -0.104, -0.171, -0.206, 0.283, -0.097,
      -0.075, -0.021, -0.059, 0.219, -0.293, 0.257, -0.155, 0.167, 0.047, 0.174,
      -0.167, 0.04, -0.01, -0.184, 0.167, -0.085, 0.058, 0.109, -0.064, 0.209,
      0.136, -0.01, 0.04, -0.187, 0.399, 0.136, 0.235, -0.132, -0.086, -0.23,
      -0.21, 0.219, 0.402, -0.04, 0.244, -0.056, -0.09, 0.042, 0.153, -0.191,
      0.292, 0.324, 0.142, -0.118, 0.144, -0.091, 0.174, 0.161, 0.108, -0.177,
      -0.068, 0.218, 0.006, 0.173, 0.089, -0.049, 0.062, -0.152, 0.157, 0.085,
      0.151, 0.039, 0.037, -0.172, 0.008, -0.11, -0.163, 0.098, 0.093, -0.084,
      -0.092, -0.113, 0.179, -0.073,
    ],
    [
      0.023, 0.044, -0.205, 0.115, 0.061, 0.071, 0.137, -0.184, -0.062, 0.039,
      -0.149, 0.113, 0.038, -0.02, -0.003, 0.215, -0.269, -0.02, -0.046, 0.155,
      -0.016, -0.071, -0.055, 0.003, 0.109, -0.129, -0.062, -0.124, -0.156,
      0.067, 0.038, -0.217, -0.101, 0.011, 0.085, -0.056, -0.036, 0.136, 0.14,
      0.184, -0.044, -0.079, -0.086, -0.107, 0.016, 0.064, 0.153, 0.137, -0.135,
      0.026, 0.031, -0.072, -0.26, -0.072, 0.087, 0.175, -0.161, 0.007, -0.142,
      -0.113, -0.065, 0.006, 0.119, 0.141, -0.014, -0.068, 0.177, 0.208, -0.277,
      -0.112, -0.024, -0.181, -0.28, 0.028, -0.143, 0.094, 0.1, 0.05, -0.157,
      -0.032, 0.129, -0.094, -0.152, 0.104,
    ],
    [
      0.003, 0.385, -0.066, -0.123, -0.146, 0.092, -0.327, -0.048, -0.179, 0.02,
      0.173, -0.262, -0.05, 0.168, -0.264, 0.125, -0.077, 0.12, -0.027, 0.261,
      -0.257, -0.112, 0.068, -0.027, 0.198, -0.145, -0.089, 0.152, -0.232, 0.09,
      0.03, 0.186, -0.283, -0.035, -0.091, 0.151, 0.116, -0.22, -0.087, -0.168,
      -0.121, 0.366, 0.244, -0.03, 0.114, -0.182, -0.002, 0.07, -0.23, -0.021,
      0.21, -0.259, 0.355, -0.074, -0.04, -0.192, 0.079, 0.195, 0.035, 0.101,
      -0.278, 0.052, 0.271, 0.199, -0.062, -0.238, 0.221, -0.066, 0.149, -0.139,
      0.158, -0.107, 0.071, -0.214, 0.242, 0.074, 0.063, 0.252, 0.234, -0.246,
      -0.152, -0.33, 0.139, -0.068,
    ],
    [
      -0.193, 0.004, -0.066, 0.019, -0.12, 0.053, 0.324, -0.091, -0.276, -0.139,
      0.039, -0.083, 0.234, -0.079, 0.06, -0.114, -0.057, -0.093, 0.112, 0.019,
      0.198, -0.136, 0.069, 0.073, -0.133, 0.084, 0.078, -0.037, 0.066, -0.133,
      -0.159, -0.08, -0.039, 0.103, -0.084, -0.232, 0.075, -0.007, 0.007, 0.024,
      0.102, -0.261, -0.088, -0.113, 0.152, 0.18, 0.095, 0.032, -0.064, 0.116,
      0.214, 0.002, 0.156, 0.119, -0.346, 0.106, -0.134, -0.066, 0.079, -0.305,
      -0.171, 0.029, -0.208, -0.139, 0.108, 0.123, -0.121, 0.074, -0.063,
      -0.105, -0.196, -0.169, 0.238, 0.196, -0.088, 0.14, -0.21, 0.101, -0.116,
      -0.033, -0.002, -0.063, -0.027, 0.216,
    ],
    [
      0.006, 0.359, 0.087, 0.053, -0.297, -0.225, 0.08, -0.38, -0.235, -0.25,
      0.22, 0.041, 0.213, -0.122, 0.035, 0.142, -0.191, 0.208, -0.038, 0.061,
      -0.193, -0.131, -0.073, -0.216, -0.025, -0.214, -0.006, -0.025, -0.128,
      0.069, 0.311, -0.031, 0.082, -0.044, -0.21, 0.381, -0.066, 0.131, -0.088,
      0.159, -0.175, 0.063, -0.098, -0.037, -0.118, 0.164, 0.289, 0.202, -0.142,
      -0.147, 0.061, -0.228, -0.279, 0.343, 0.032, 0.103, 0.093, 0.122, 0.273,
      0.085, -0.148, 0.002, 0.237, 0.064, -0.214, -0.219, 0.289, -0.002, 0.153,
      -0.231, 0.034, 0.086, 0.015, -0.319, -0.055, 0.088, 0.062, 0.255, -0.209,
      -0.352, -0.147, 0.204, -0.07, -0.285,
    ],
    [
      0.096, 0.073, 0.153, 0.011, -0.135, 0.208, 0.019, 0.023, -0.225, -0.256,
      -0.125, 0.068, 0.039, 0.027, -0.061, -0.075, 0.143, 0.263, 0.166, 0.142,
      -0.214, 0.077, -0.011, -0.269, 0.023, 0.168, 0.128, 0.103, 0.053, -0.019,
      0.043, 0.025, 0.121, -0.229, -0.014, 0.336, 0.229, -0.051, -0.193, -0.019,
      -0.08, 0.307, 0.132, -0.111, -0.258, -0.01, -0.11, 0.009, 0.245, 0.111,
      -0.142, 0.138, -0.093, 0.152, 0.197, -0.171, 0.08, 0.083, -0.166, 0.111,
      -0.023, 0.278, 0.003, -0.019, -0.107, 0.076, 0.15, -0.011, 0.09, 0.098,
      0.275, -0.016, 0.06, 0.072, -0.091, 0.037, -0.196, 0.05, 0.185, -0.254,
      0.095, 0.218, -0.143, -0.155,
    ],
    [
      -0.086, 0.352, 0.304, 0.162, -0.082, 0.009, -0.005, -0.205, -0.242,
      -0.137, -0.028, 0.022, 0.025, 0.195, -0.0, -0.083, 0.073, 0.139, 0.05,
      0.053, -0.119, -0.041, -0.044, -0.033, -0.13, -0.029, 0.131, 0.098,
      -0.079, 0.137, -0.044, -0.014, -0.078, -0.183, -0.2, -0.061, -0.094,
      -0.115, -0.008, -0.174, 0.041, -0.086, 0.106, -0.082, -0.298, 0.11, 0.044,
      0.103, -0.042, -0.013, -0.001, -0.053, -0.486, 0.029, -0.026, 0.206,
      -0.009, 0.061, 0.221, -0.082, -0.145, 0.071, 0.049, -0.121, 0.132, 0.089,
      -0.013, 0.223, 0.18, 0.036, 0.095, -0.125, 0.192, -0.054, 0.199, 0.145,
      0.036, 0.096, 0.062, 0.012, -0.202, 0.396, -0.146, -0.0,
    ],
    [
      -0.073, -0.198, -0.06, -0.087, -0.085, 0.007, 0.288, -0.016, -0.061,
      -0.015, -0.178, 0.086, 0.052, -0.091, 0.156, -0.166, 0.135, -0.094, 0.213,
      -0.083, 0.162, 0.041, -0.114, 0.147, -0.06, -0.009, 0.232, -0.114, -0.078,
      0.052, -0.186, -0.088, -0.001, 0.276, 0.23, -0.008, 0.103, -0.035, -0.021,
      0.1, 0.016, -0.105, 0.031, 0.252, 0.229, 0.272, -0.153, 0.096, 0.015,
      -0.112, 0.082, 0.15, -0.044, 0.31, 0.165, 0.084, -0.022, -0.225, -0.244,
      0.097, -0.108, 0.031, -0.058, -0.25, 0.012, 0.235, -0.062, -0.055, -0.138,
      0.113, 0.056, -0.002, -0.042, 0.094, -0.101, -0.28, -0.071, -0.114,
      -0.105, -0.235, 0.233, 0.333, 0.174, 0.04,
    ],
    [
      0.023, -0.183, -0.148, 0.003, -0.104, -0.149, -0.048, 0.359, 0.162, 0.076,
      0.056, -0.074, -0.238, -0.18, 0.045, -0.1, 0.017, -0.028, -0.033, -0.02,
      -0.103, 0.162, -0.115, -0.034, 0.142, 0.044, 0.033, -0.041, 0.044, -0.161,
      -0.05, -0.089, 0.1, 0.047, 0.279, -0.057, -0.118, 0.076, 0.144, 0.081,
      0.128, 0.181, -0.104, 0.078, -0.218, 0.041, -0.084, -0.149, 0.021, 0.151,
      -0.306, 0.026, 0.031, -0.109, 0.142, -0.192, -0.062, 0.047, -0.447, 0.042,
      0.072, 0.19, -0.044, 0.086, -0.282, 0.122, -0.004, -0.112, -0.185, 0.178,
      0.365, 0.123, -0.156, -0.059, -0.125, -0.106, 0.175, -0.202, -0.069,
      0.126, 0.02, -0.238, -0.119, 0.005,
    ],
    [
      0.211, 0.188, -0.045, -0.15, 0.219, 0.065, -0.016, 0.091, -0.062, -0.147,
      -0.219, 0.08, 0.168, -0.14, -0.025, -0.052, -0.169, 0.02, -0.037, 0.258,
      -0.026, -0.035, 0.118, -0.023, 0.228, -0.002, 0.114, -0.275, -0.16, 0.052,
      0.053, 0.152, -0.054, -0.208, 0.132, 0.229, -0.055, 0.176, 0.289, 0.022,
      -0.02, 0.218, 0.243, 0.067, -0.041, 0.134, -0.165, 0.08, -0.208, -0.116,
      -0.232, -0.056, -0.278, -0.092, -0.02, 0.083, 0.099, 0.099, 0.113, -0.018,
      -0.084, 0.113, 0.131, -0.168, -0.169, -0.096, 0.068, -0.073, -0.005,
      -0.031, 0.01, 0.04, -0.165, -0.146, 0.166, -0.086, 0.074, 0.187, -0.268,
      -0.171, 0.049, 0.258, -0.181, -0.105,
    ],
    [
      0.201, 0.258, 0.243, -0.091, -0.04, -0.101, 0.103, -0.074, 0.205, -0.04,
      0.185, 0.15, 0.221, 0.128, 0.047, -0.159, -0.108, 0.075, 0.001, 0.175,
      -0.215, -0.094, -0.091, 0.032, 0.089, -0.091, -0.11, 0.195, -0.085, 0.182,
      -0.088, 0.067, -0.003, 0.098, 0.182, 0.032, -0.129, 0.045, -0.274, -0.001,
      -0.044, -0.261, 0.135, 0.09, -0.113, -0.018, 0.074, 0.132, -0.173, -0.271,
      0.011, 0.043, -0.133, -0.115, 0.362, 0.183, 0.014, 0.058, 0.142, 0.297,
      0.056, -0.102, -0.173, 0.013, -0.025, -0.137, -0.247, 0.297, -0.051,
      0.175, 0.119, -0.153, 0.052, -0.0, 0.15, 0.224, -0.004, -0.254, -0.146,
      -0.192, 0.278, 0.1, 0.038, -0.036,
    ],
    [
      -0.064, 0.047, -0.121, -0.07, 0.232, 0.025, 0.078, 0.135, 0.082, 0.024,
      -0.208, 0.001, 0.065, -0.045, 0.002, -0.064, -0.259, 0.018, 0.015, 0.168,
      0.177, -0.02, 0.052, 0.081, -0.08, 0.031, 0.065, 0.085, 0.062, -0.021,
      -0.044, 0.037, 0.067, 0.057, 0.31, -0.12, -0.023, 0.107, -0.072, 0.166,
      0.076, -0.208, 0.154, -0.038, -0.067, -0.019, -0.009, -0.202, 0.058,
      -0.076, -0.177, 0.179, -0.273, -0.034, -0.049, 0.217, -0.105, 0.088,
      -0.062, 0.013, -0.031, -0.054, 0.027, 0.115, 0.047, 0.198, -0.03, 0.172,
      -0.177, 0.132, 0.075, 0.135, -0.11, 0.025, -0.124, -0.035, 0.148, -0.153,
      0.019, 0.027, 0.173, 0.039, 0.063, 0.113,
    ],
    [
      0.019, 0.146, -0.114, 0.105, 0.04, 0.106, 0.051, -0.043, 0.11, -0.05,
      -0.002, -0.029, 0.057, 0.182, -0.091, 0.154, -0.022, -0.037, -0.005,
      0.149, 0.114, -0.075, 0.171, -0.141, 0.108, 0.158, 0.131, -0.152, 0.0,
      -0.072, -0.02, -0.071, 0.194, -0.163, -0.094, -0.08, 0.236, 0.094, 0.031,
      -0.165, -0.203, 0.032, 0.06, -0.217, 0.045, -0.049, -0.111, -0.082, 0.05,
      0.063, -0.131, 0.126, -0.32, -0.057, -0.057, -0.013, 0.184, -0.002,
      -0.045, -0.22, -0.002, 0.058, 0.158, -0.086, 0.107, 0.077, -0.114, 0.136,
      -0.122, 0.08, 0.012, 0.165, -0.135, 0.008, -0.108, 0.017, 0.202, 0.038,
      -0.102, 0.125, 0.2, -0.038, -0.226, 0.042,
    ],
    [
      -0.121, -0.071, -0.159, 0.015, -0.083, 0.024, 0.188, -0.141, 0.011, 0.061,
      -0.077, 0.125, -0.134, -0.073, -0.13, 0.118, -0.112, 0.12, 0.126, -0.123,
      0.036, -0.093, 0.073, -0.075, -0.038, -0.106, 0.212, -0.218, 0.126,
      -0.073, 0.051, -0.066, 0.035, 0.329, 0.049, 0.111, 0.073, -0.034, -0.086,
      -0.126, -0.072, -0.197, -0.165, -0.051, -0.156, 0.057, 0.124, 0.156,
      -0.174, 0.02, 0.264, -0.159, -0.043, 0.143, -0.01, -0.148, 0.022, 0.046,
      0.013, -0.067, 0.033, -0.143, -0.108, -0.059, -0.188, 0.01, 0.207, 0.066,
      -0.065, 0.033, -0.003, -0.131, 0.16, 0.065, -0.191, 0.11, 0.095, 0.1,
      0.024, -0.236, 0.072, 0.049, 0.086, 0.015,
    ],
    [
      -0.091, 0.363, 0.187, 0.127, 0.051, -0.062, 0.205, 0.102, 0.042, -0.078,
      -0.153, 0.103, 0.292, -0.059, 0.135, -0.051, -0.002, -0.168, -0.077,
      0.324, 0.101, 0.003, 0.178, 0.119, -0.02, 0.122, -0.101, -0.032, -0.164,
      -0.162, -0.038, -0.167, -0.072, -0.237, -0.184, -0.145, 0.04, 0.143,
      0.169, -0.045, 0.205, -0.018, 0.114, 0.006, 0.109, 0.265, -0.049, 0.055,
      -0.122, -0.216, 0.005, -0.161, -0.154, 0.128, -0.127, 0.214, 0.078,
      -0.262, 0.172, -0.228, 0.17, -0.011, -0.045, -0.046, 0.172, 0.27, -0.082,
      -0.003, -0.039, 0.068, -0.254, -0.051, -0.109, 0.15, 0.012, 0.258, 0.057,
      -0.016, -0.077, -0.116, -0.001, 0.058, -0.148, 0.041,
    ],
    [
      0.146, 0.06, -0.082, 0.22, -0.005, 0.034, -0.033, -0.166, 0.132, 0.097,
      0.009, 0.174, 0.29, 0.38, -0.155, -0.036, -0.101, 0.122, -0.035, 0.095,
      0.223, 0.029, 0.118, -0.096, -0.06, -0.301, -0.156, -0.174, 0.052, 0.204,
      0.141, -0.099, -0.033, -0.001, 0.022, 0.219, -0.07, -0.038, -0.066, 0.398,
      -0.15, 0.21, -0.071, 0.24, -0.022, -0.033, 0.183, 0.056, 0.011, -0.08,
      0.074, 0.303, -0.013, 0.047, 0.003, 0.331, -0.165, -0.163, 0.264, 0.286,
      -0.155, -0.082, 0.002, 0.014, 0.199, 0.065, 0.217, 0.271, 0.071, -0.038,
      -0.303, -0.226, 0.16, -0.022, 0.0, 0.01, -0.04, -0.178, 0.007, -0.266,
      0.135, -0.143, -0.067, 0.164,
    ],
    [
      -0.13, 0.144, 0.198, 0.212, -0.156, 0.09, 0.204, -0.028, -0.152, -0.006,
      -0.093, 0.012, -0.012, 0.071, 0.007, 0.037, 0.184, -0.054, 0.105, -0.108,
      -0.032, -0.212, -0.033, 0.111, -0.171, 0.017, 0.322, 0.065, 0.088, -0.097,
      -0.073, -0.198, -0.052, 0.022, -0.077, -0.055, -0.081, 0.144, 0.138,
      -0.022, 0.015, -0.139, 0.013, -0.128, -0.157, 0.168, -0.028, 0.132,
      -0.348, -0.039, -0.216, -0.046, -0.123, -0.072, -0.024, -0.01, 0.018,
      0.173, 0.127, -0.058, 0.106, 0.116, 0.025, 0.084, -0.073, -0.075, 0.057,
      0.175, -0.241, -0.18, -0.113, 0.051, -0.202, -0.097, -0.13, -0.097, 0.126,
      0.132, -0.19, 0.011, 0.07, 0.007, -0.245, -0.038,
    ],
    [
      -0.096, -0.01, -0.09, 0.145, -0.039, -0.212, 0.105, -0.042, 0.173, 0.196,
      -0.182, 0.257, -0.047, 0.114, 0.043, -0.034, -0.265, -0.158, -0.073,
      -0.084, 0.183, 0.125, -0.04, -0.098, -0.029, -0.155, 0.103, -0.089,
      -0.126, -0.099, -0.137, -0.189, 0.235, 0.111, 0.199, -0.283, -0.144,
      0.146, 0.258, 0.097, 0.069, -0.122, 0.003, 0.25, 0.019, 0.203, -0.073,
      -0.006, -0.098, -0.104, 0.021, 0.042, -0.407, 0.174, 0.018, 0.277, 0.016,
      -0.314, -0.08, -0.152, 0.036, -0.103, -0.173, -0.146, -0.11, 0.091,
      -0.077, -0.156, -0.062, -0.107, -0.144, 0.023, -0.203, -0.06, 0.164,
      -0.183, 0.003, -0.189, -0.015, -0.216, 0.117, 0.195, 0.067, -0.045,
    ],
    [
      -0.159, 0.094, -0.149, 0.214, 0.236, 0.062, -0.138, 0.176, 0.374, 0.08,
      -0.023, 0.078, -0.146, -0.148, 0.109, -0.032, -0.213, 0.173, -0.029,
      0.072, 0.147, 0.056, 0.099, 0.016, 0.116, 0.179, -0.016, -0.261, 0.208,
      -0.057, 0.044, -0.036, -0.079, -0.184, -0.335, -0.151, -0.102, -0.145,
      0.24, -0.184, -0.007, 0.118, -0.2, 0.176, -0.308, 0.063, -0.068, -0.062,
      -0.018, -0.076, 0.109, -0.086, 0.004, 0.407, 0.068, -0.055, -0.041, 0.386,
      -0.033, 0.381, 0.085, 0.163, 0.006, -0.209, -0.101, 0.042, 0.385, -0.086,
      -0.321, 0.104, 0.488, -0.129, 0.077, -0.171, -0.271, 0.021, 0.187, 0.286,
      0.174, -0.107, 0.043, 0.043, -0.185, 0.077,
    ],
    [
      -0.005, 0.126, -0.06, 0.123, 0.149, -0.139, 0.007, 0.067, 0.251, 0.19,
      -0.207, 0.006, -0.005, 0.128, 0.059, 0.101, -0.033, -0.321, -0.233, 0.144,
      0.128, 0.302, -0.017, 0.035, 0.198, -0.125, -0.131, -0.016, 0.001, -0.131,
      -0.079, -0.153, 0.003, -0.021, 0.079, -0.12, 0.135, 0.08, 0.004, 0.128,
      -0.191, 0.235, -0.019, 0.286, 0.006, 0.025, -0.188, -0.028, 0.076, -0.301,
      0.262, -0.113, -0.127, 0.026, 0.11, 0.205, 0.076, -0.282, 0.157, 0.103,
      0.194, -0.1, -0.056, -0.099, 0.07, -0.197, 0.044, -0.083, -0.059, -0.159,
      0.019, -0.012, -0.182, -0.177, 0.11, -0.115, 0.141, -0.211, -0.118,
      -0.028, 0.125, -0.016, -0.214, 0.133,
    ],
    [
      0.148, -0.256, 0.123, 0.007, 0.192, 0.163, 0.121, 0.095, 0.042, 0.045,
      -0.073, -0.036, -0.305, 0.193, -0.085, 0.166, -0.089, 0.283, 0.122,
      -0.118, -0.003, -0.255, -0.129, -0.002, -0.193, 0.005, 0.185, -0.149,
      -0.057, 0.187, -0.045, 0.129, -0.014, 0.066, -0.009, -0.042, 0.065,
      -0.013, -0.222, -0.179, -0.401, -0.164, 0.086, -0.096, 0.093, -0.131,
      -0.016, 0.05, 0.135, 0.131, -0.403, 0.373, 0.127, 0.063, 0.192, -0.132,
      0.008, 0.245, -0.245, 0.222, -0.12, -0.043, 0.032, 0.018, -0.092, 0.096,
      -0.269, 0.083, -0.054, 0.073, 0.292, 0.227, -0.199, 0.051, -0.098, -0.108,
      0.006, 0.137, -0.038, 0.027, 0.088, -0.09, 0.075, -0.094,
    ],
    [
      -0.123, 0.176, -0.033, -0.061, -0.402, -0.098, -0.224, -0.167, -0.187,
      -0.044, 0.204, 0.09, -0.256, 0.161, 0.029, 0.106, -0.163, -0.009, 0.078,
      0.083, -0.257, 0.006, -0.044, -0.134, -0.099, -0.072, 0.409, 0.083,
      -0.236, 0.01, -0.225, 0.029, -0.112, -0.006, -0.153, 0.132, -0.093,
      -0.037, -0.041, -0.119, -0.039, -0.027, -0.255, -0.131, -0.05, 0.171,
      0.115, 0.007, -0.22, 0.212, 0.084, -0.146, 0.088, -0.29, -0.056, -0.206,
      -0.161, 0.125, 0.186, -0.112, -0.031, 0.207, 0.185, 0.435, -0.176, -0.197,
      -0.01, 0.022, 0.076, -0.141, -0.045, -0.119, -0.093, -0.049, -0.195,
      -0.049, -0.167, 0.219, -0.235, -0.086, -0.154, -0.198, -0.302, -0.12,
    ],
    [
      0.025, -0.315, -0.074, -0.102, -0.117, -0.214, 0.018, -0.099, -0.05,
      0.033, 0.052, -0.059, 0.108, 0.19, -0.077, 0.075, 0.002, 0.079, -0.062,
      -0.24, -0.046, -0.032, -0.188, 0.063, 0.108, -0.175, -0.107, 0.003, 0.057,
      0.097, 0.141, 0.071, -0.049, -0.051, 0.076, 0.108, -0.049, 0.026, -0.037,
      -0.146, 0.015, -0.273, -0.123, -0.078, -0.085, -0.069, 0.087, 0.02,
      -0.079, 0.156, 0.231, -0.015, 0.356, -0.273, 0.019, -0.042, -0.046,
      -0.009, 0.035, 0.071, -0.107, -0.047, 0.036, -0.001, -0.005, -0.137, 0.16,
      0.133, 0.058, -0.036, -0.047, -0.137, 0.141, -0.144, 0.212, 0.108, -0.195,
      0.087, 0.058, 0.078, -0.12, -0.192, 0.095, -0.14,
    ],
    [
      -0.057, -0.215, -0.126, 0.171, -0.037, -0.373, 0.183, 0.236, 0.145,
      -0.133, 0.113, 0.059, -0.041, -0.141, 0.248, -0.14, -0.305, 0.163, -0.147,
      -0.179, 0.125, 0.116, 0.234, 0.027, 0.087, 0.14, 0.233, -0.001, 0.328,
      -0.045, 0.2, -0.091, 0.163, -0.205, 0.257, -0.204, 0.153, 0.211, 0.057,
      -0.157, -0.024, 0.026, -0.325, -0.035, -0.227, 0.122, -0.156, -0.019,
      -0.196, -0.099, 0.022, -0.081, 0.08, -0.055, 0.226, 0.031, 0.255, 0.319,
      -0.134, -0.304, 0.213, 0.218, -0.2, 0.037, 0.132, 0.047, -0.189, 0.089,
      -0.168, 0.182, 0.13, 0.034, -0.231, -0.065, -0.142, -0.303, 0.253, -0.22,
      -0.147, 0.144, 0.194, 0.284, -0.228, -0.002,
    ],
    [
      -0.231, 0.031, -0.085, -0.044, 0.177, 0.24, -0.037, 0.054, 0.024, -0.057,
      0.0, -0.036, 0.051, -0.083, 0.199, -0.107, 0.134, -0.055, 0.165, 0.148,
      0.168, -0.02, 0.045, 0.234, -0.131, -0.03, 0.029, -0.158, 0.144, -0.033,
      0.139, -0.088, -0.049, 0.062, -0.102, -0.065, 0.028, -0.029, 0.071, 0.201,
      0.051, 0.216, 0.03, 0.131, 0.084, 0.149, -0.197, -0.128, 0.034, 0.091,
      -0.101, 0.225, 0.051, 0.035, -0.013, -0.072, -0.216, -0.138, 0.189, 0.156,
      0.093, 0.243, -0.181, -0.122, 0.076, 0.217, 0.034, -0.097, -0.03, 0.193,
      0.047, -0.211, -0.058, 0.167, -0.123, -0.083, -0.109, 0.034, 0.099, 0.123,
      -0.049, 0.125, 0.02, 0.217,
    ],
    [
      -0.019, -0.125, -0.236, -0.066, -0.238, 0.169, -0.117, 0.036, 0.22,
      -0.197, 0.066, 0.104, -0.107, 0.184, -0.14, 0.008, 0.134, 0.142, 0.168,
      -0.281, 0.086, -0.004, 0.08, 0.081, -0.19, 0.204, 0.25, 0.138, 0.154,
      -0.065, 0.036, 0.039, -0.015, 0.038, 0.354, 0.067, 0.244, -0.19, 0.138,
      -0.31, 0.063, 0.102, -0.068, -0.061, -0.13, 0.132, -0.155, -0.108, 0.248,
      0.021, 0.19, 0.105, 0.166, -0.025, 0.093, 0.016, -0.077, 0.253, 0.109,
      -0.024, 0.218, 0.27, -0.251, 0.273, 0.25, -0.005, -0.152, -0.063, -0.002,
      0.251, 0.156, 0.138, -0.155, 0.099, -0.279, -0.169, 0.108, -0.048, 0.328,
      0.221, -0.065, 0.007, 0.002, 0.074,
    ],
    [
      0.065, -0.04, 0.085, -0.238, -0.15, 0.022, -0.098, -0.177, -0.055, -0.175,
      0.209, 0.107, -0.089, 0.016, -0.161, 0.017, 0.018, 0.145, -0.065, -0.116,
      0.043, -0.138, 0.165, -0.061, -0.007, -0.185, 0.058, 0.01, -0.174, -0.012,
      0.116, 0.099, 0.22, -0.074, 0.208, 0.118, -0.036, 0.124, -0.303, -0.055,
      -0.268, 0.071, 0.093, 0.109, 0.218, -0.307, 0.14, -0.049, 0.183, 0.008,
      -0.162, -0.125, 0.069, -0.155, -0.068, -0.014, 0.008, 0.237, 0.002, 0.199,
      0.059, 0.175, -0.049, 0.151, -0.098, -0.221, 0.012, -0.1, 0.213, -0.086,
      0.13, 0.135, -0.117, 0.005, -0.135, -0.109, -0.096, 0.002, -0.048, 0.064,
      -0.179, -0.259, 0.153, -0.224,
    ],
    [
      0.036, 0.086, -0.259, 0.012, 0.09, 0.148, 0.138, 0.118, -0.091, 0.2,
      -0.008, 0.112, -0.147, -0.139, 0.034, -0.046, 0.083, -0.23, -0.096, 0.206,
      -0.023, 0.117, 0.117, 0.055, 0.091, -0.017, 0.114, -0.226, 0.138, -0.243,
      0.055, -0.144, 0.07, 0.068, -0.285, -0.12, 0.044, 0.21, 0.012, 0.309,
      0.072, 0.134, -0.15, 0.116, -0.056, 0.035, -0.089, -0.094, 0.095, -0.044,
      -0.331, -0.103, -0.162, -0.048, -0.149, 0.067, 0.058, -0.136, 0.282,
      0.167, 0.171, -0.077, -0.002, 0.003, -0.168, 0.102, -0.104, -0.083,
      -0.012, -0.14, 0.216, 0.144, -0.231, -0.032, -0.216, -0.09, 0.131, -0.115,
      -0.043, 0.209, 0.091, -0.072, -0.136, 0.14,
    ],
    [
      0.058, -0.172, -0.065, 0.178, -0.288, -0.153, -0.207, -0.069, 0.276,
      -0.08, -0.057, -0.001, -0.245, -0.068, -0.311, 0.047, 0.095, 0.203, 0.215,
      -0.299, 0.016, -0.273, -0.193, -0.041, 0.01, -0.119, 0.006, 0.274, -0.064,
      -0.074, 0.01, -0.137, -0.091, -0.043, 0.138, -0.076, -0.126, -0.081,
      -0.006, -0.33, 0.272, -0.212, 0.023, 0.056, -0.024, 0.236, -0.015, -0.064,
      0.01, 0.043, 0.176, 0.098, 0.092, -0.068, 0.224, -0.15, 0.106, -0.072,
      0.056, 0.128, -0.004, -0.18, 0.149, 0.316, -0.046, 0.007, -0.113, 0.052,
      -0.009, -0.02, -0.025, 0.037, 0.044, -0.22, 0.071, -0.204, -0.06, 0.029,
      0.152, 0.209, -0.244, -0.322, 0.154, -0.018,
    ],
    [
      0.046, -0.24, -0.099, 0.026, -0.167, 0.013, 0.039, 0.2, 0.076, -0.052,
      -0.181, 0.014, -0.114, 0.151, 0.089, 0.018, 0.128, -0.004, 0.123, -0.045,
      0.147, 0.299, -0.039, 0.163, -0.134, 0.137, -0.006, -0.018, 0.113, 0.072,
      -0.024, -0.116, 0.113, -0.086, -0.218, -0.135, 0.138, -0.042, 0.113,
      0.069, 0.117, -0.062, 0.127, 0.028, -0.123, 0.186, -0.297, 0.0, 0.069,
      -0.231, -0.226, 0.196, 0.03, 0.126, 0.235, 0.19, 0.001, -0.047, -0.147,
      -0.194, 0.233, 0.021, -0.201, -0.168, 0.085, 0.141, -0.099, 0.119, -0.028,
      0.11, -0.129, 0.081, -0.111, 0.025, -0.131, -0.167, 0.051, -0.104, 0.018,
      0.097, 0.143, 0.236, -0.222, 0.068,
    ],
    [
      -0.142, -0.092, -0.373, 0.154, -0.434, 0.02, 0.05, -0.276, -0.349, -0.066,
      0.071, 0.011, 0.006, -0.009, -0.06, 0.201, 0.104, 0.078, 0.083, -0.205,
      -0.072, -0.038, -0.021, -0.064, 0.012, -0.047, 0.068, 0.156, 0.102,
      -0.085, 0.214, -0.043, 0.172, 0.199, 0.014, -0.156, 0.194, 0.284, 0.029,
      0.306, 0.185, -0.008, 0.035, -0.151, -0.075, -0.112, 0.022, 0.117, -0.178,
      -0.219, 0.116, -0.066, 0.15, 0.176, -0.018, 0.055, -0.057, 0.074, -0.058,
      -0.176, -0.155, 0.261, 0.215, -0.087, -0.131, -0.235, -0.056, -0.056,
      -0.047, -0.28, 0.25, 0.328, 0.002, -0.055, -0.138, -0.017, -0.1, 0.303,
      0.143, -0.252, -0.096, 0.123, 0.135, 0.119,
    ],
    [
      0.038, 0.005, -0.011, -0.057, -0.26, -0.125, -0.149, 0.123, -0.242,
      -0.012, -0.003, -0.108, 0.121, -0.047, 0.19, 0.026, 0.14, -0.123, 0.002,
      -0.199, -0.151, -0.03, -0.116, 0.082, -0.168, 0.076, -0.2, 0.19, -0.032,
      0.145, -0.018, 0.203, 0.053, 0.086, 0.15, 0.047, 0.078, -0.042, 0.027,
      0.002, 0.277, 0.239, 0.129, -0.004, -0.099, 0.135, -0.021, -0.167, 0.097,
      -0.065, -0.153, -0.064, 0.285, -0.119, -0.001, 0.253, -0.105, -0.212,
      0.178, -0.291, -0.047, -0.005, 0.031, -0.143, 0.092, -0.022, -0.283,
      -0.021, 0.207, -0.045, 0.059, 0.017, 0.138, -0.114, 0.115, 0.026, -0.035,
      -0.223, 0.121, 0.011, -0.214, 0.313, -0.072, -0.124,
    ],
    [
      0.1, -0.072, 0.06, -0.014, 0.178, 0.123, 0.079, -0.05, 0.149, -0.045,
      -0.051, -0.144, -0.058, 0.088, -0.051, 0.107, 0.121, 0.331, -0.027,
      -0.096, 0.109, 0.065, -0.081, -0.084, 0.118, 0.038, 0.089, 0.006, 0.185,
      0.224, 0.115, 0.026, 0.158, 0.108, 0.245, 0.047, -0.087, 0.047, -0.174,
      -0.083, -0.102, 0.178, 0.162, 0.022, -0.221, 0.041, -0.27, 0.163, 0.004,
      -0.166, -0.088, 0.03, 0.163, 0.021, 0.09, -0.031, -0.033, 0.332, 0.193,
      -0.09, 0.179, 0.101, -0.047, -0.02, 0.018, -0.099, 0.071, -0.022, -0.092,
      0.166, 0.015, 0.051, -0.089, 0.088, -0.029, 0.041, 0.039, -0.313, 0.079,
      -0.079, 0.013, 0.374, 0.032, 0.143,
    ],
    [
      0.096, 0.036, 0.011, 0.032, 0.094, -0.172, 0.187, 0.16, -0.17, -0.19,
      0.011, -0.047, 0.135, -0.208, 0.067, -0.064, 0.117, -0.213, -0.252,
      -0.097, 0.007, 0.115, 0.084, -0.121, 0.058, 0.105, 0.094, -0.186, 0.165,
      -0.176, -0.06, 0.06, 0.142, 0.122, 0.136, -0.063, -0.228, 0.257, -0.097,
      0.133, 0.243, -0.102, 0.007, 0.016, -0.082, 0.236, 0.102, 0.12, -0.205,
      0.107, -0.273, -0.266, -0.264, -0.107, -0.155, 0.152, 0.102, -0.011,
      -0.089, -0.106, 0.094, 0.128, 0.045, -0.23, -0.144, -0.241, 0.205, -0.021,
      -0.222, 0.135, -0.213, 0.087, -0.038, 0.001, 0.212, 0.161, 0.185, -0.209,
      -0.22, -0.128, 0.133, 0.165, -0.145, -0.165,
    ],
    [
      0.031, -0.213, -0.231, -0.045, 0.051, -0.008, -0.047, 0.127, 0.036, 0.096,
      -0.022, -0.164, 0.1, 0.152, 0.051, -0.086, 0.136, -0.052, 0.053, -0.033,
      0.105, 0.084, 0.055, 0.043, -0.17, 0.098, -0.093, -0.056, 0.056, -0.035,
      0.131, -0.036, -0.05, 0.006, 0.157, -0.165, 0.085, -0.001, 0.229, 0.176,
      0.172, 0.341, 0.076, 0.082, -0.01, 0.098, -0.025, -0.256, 0.039, -0.161,
      -0.112, -0.01, 0.077, -0.239, 0.236, 0.201, -0.097, 0.009, -0.214, -0.079,
      0.153, 0.039, 0.017, 0.032, 0.126, -0.127, -0.071, 0.037, -0.125, 0.083,
      -0.118, 0.086, -0.093, 0.035, 0.11, -0.16, 0.152, -0.14, 0.214, 0.051,
      0.009, 0.064, 0.106, 0.057,
    ],
    [
      -0.029, -0.265, 0.151, -0.073, 0.215, -0.157, 0.059, -0.14, 0.09, -0.249,
      -0.092, -0.025, 0.239, -0.156, -0.139, -0.017, 0.097, 0.128, -0.068,
      -0.027, 0.047, -0.12, 0.07, -0.068, 0.078, -0.161, -0.234, -0.124, 0.166,
      0.153, 0.156, 0.044, 0.101, -0.07, -0.015, -0.098, 0.231, 0.084, -0.185,
      -0.067, -0.086, -0.064, 0.158, -0.072, 0.049, -0.112, 0.093, 0.189, 0.199,
      -0.385, 0.14, -0.208, 0.162, 0.088, -0.064, -0.074, 0.038, -0.021, 0.141,
      -0.132, -0.073, 0.046, 0.011, -0.117, 0.116, -0.083, -0.003, -0.131,
      0.049, -0.012, 0.022, 0.138, 0.131, -0.153, 0.095, 0.152, -0.058, -0.177,
      0.192, 0.044, -0.027, 0.144, 0.162, -0.053,
    ],
    [
      -0.154, 0.02, -0.09, 0.059, 0.085, 0.122, 0.015, 0.199, 0.185, 0.135,
      0.025, -0.145, -0.0, 0.03, -0.029, -0.176, -0.024, -0.156, -0.167, 0.008,
      0.092, 0.069, 0.139, 0.054, 0.047, 0.17, 0.072, -0.082, -0.15, -0.049,
      -0.056, -0.014, 0.023, -0.145, 0.03, -0.073, 0.133, -0.299, 0.205, -0.032,
      0.016, 0.148, -0.003, 0.183, 0.198, 0.085, -0.186, -0.092, 0.07, 0.216,
      0.063, 0.216, -0.173, -0.095, 0.016, -0.058, 0.031, -0.064, -0.18, 0.025,
      0.004, -0.049, -0.231, -0.037, 0.001, 0.244, -0.037, -0.047, 0.066, 0.116,
      -0.091, -0.127, 0.163, 0.114, 0.025, -0.133, -0.15, -0.088, -0.047, 0.179,
      0.26, 0.023, 0.09, 0.059,
    ],
    [
      -0.243, 0.099, -0.292, 0.17, -0.062, -0.166, -0.055, 0.34, -0.056, 0.273,
      0.077, -0.13, -0.049, -0.062, -0.01, 0.252, 0.016, -0.268, 0.14, 0.036,
      0.044, 0.288, -0.069, 0.31, 0.199, -0.084, 0.062, 0.147, -0.051, 0.017,
      -0.123, -0.188, 0.108, 0.158, -0.158, 0.041, 0.172, 0.196, 0.136, -0.057,
      0.255, 0.203, 0.046, 0.011, -0.08, 0.053, 0.102, 0.209, -0.091, 0.193,
      -0.027, 0.089, -0.003, -0.163, -0.045, 0.081, 0.127, 0.15, -0.212, -0.486,
      -0.042, 0.239, 0.239, 0.176, -0.059, 0.018, 0.107, 0.119, -0.065, 0.031,
      0.197, 0.055, -0.014, -0.117, -0.066, -0.159, 0.226, 0.068, -0.068,
      -0.142, 0.139, -0.066, -0.149, 0.177,
    ],
    [
      -0.141, 0.031, -0.18, 0.181, 0.293, -0.037, -0.006, 0.068, -0.108, -0.024,
      -0.17, -0.185, 0.119, 0.298, -0.182, 0.038, 0.141, 0.282, 0.092, -0.183,
      -0.0, -0.095, 0.059, 0.151, -0.272, -0.136, 0.26, 0.183, 0.036, 0.183,
      0.133, -0.086, -0.011, -0.074, 0.195, 0.138, 0.009, -0.003, 0.063, -0.047,
      -0.077, 0.094, -0.005, 0.188, 0.073, 0.054, -0.303, 0.169, -0.323, -0.26,
      0.343, 0.005, 0.138, -0.069, -0.124, 0.082, -0.056, 0.206, 0.455, -0.185,
      -0.021, 0.319, 0.177, 0.287, 0.091, -0.296, 0.26, 0.189, 0.035, 0.134,
      -0.249, 0.03, -0.063, 0.089, -0.134, -0.15, 0.261, 0.149, 0.113, -0.077,
      0.023, 0.129, 0.101, 0.202,
    ],
    [
      -0.189, -0.229, -0.355, 0.111, -0.046, -0.034, 0.003, 0.134, -0.014,
      0.177, -0.156, 0.077, 0.113, -0.182, -0.091, -0.02, 0.253, -0.158, 0.015,
      -0.163, 0.189, 0.074, 0.148, 0.095, 0.072, 0.112, -0.216, -0.003, 0.012,
      -0.172, 0.211, -0.071, 0.013, 0.066, -0.014, -0.019, 0.198, 0.198, 0.115,
      0.192, 0.05, -0.077, 0.171, -0.159, -0.137, -0.035, -0.152, -0.245, 0.206,
      0.051, -0.085, 0.146, 0.145, 0.344, -0.221, 0.173, 0.016, -0.195, -0.006,
      -0.298, 0.061, -0.057, -0.024, -0.221, 0.058, 0.226, -0.028, -0.032,
      -0.064, 0.056, -0.19, 0.151, -0.023, -0.017, -0.112, 0.027, 0.168, -0.111,
      0.105, 0.12, -0.072, 0.1, 0.177, 0.166,
    ],
    [
      -0.111, -0.062, -0.153, 0.007, -0.034, 0.01, -0.043, -0.063, -0.111,
      -0.048, 0.124, 0.09, 0.065, 0.097, 0.11, -0.031, -0.053, -0.171, -0.113,
      0.298, -0.025, 0.059, 0.162, 0.118, 0.086, 0.183, 0.098, 0.01, -0.2,
      0.135, 0.045, 0.032, 0.072, -0.081, 0.05, 0.099, 0.051, -0.062, 0.056,
      0.149, -0.259, 0.359, 0.226, 0.197, 0.209, -0.153, -0.135, -0.219, 0.042,
      -0.236, 0.149, 0.012, 0.37, 0.039, -0.049, 0.001, -0.037, -0.028, 0.014,
      0.015, 0.125, 0.093, -0.128, 0.103, 0.201, -0.137, 0.058, 0.021, 0.122,
      -0.089, -0.126, 0.023, -0.16, 0.152, 0.076, -0.01, 0.048, 0.047, 0.036,
      -0.024, 0.095, 0.052, 0.101, -0.075,
    ],
    [
      0.032, -0.2, 0.219, -0.051, 0.032, -0.074, -0.162, -0.108, -0.234, -0.128,
      0.058, -0.002, 0.022, -0.02, 0.104, 0.01, -0.315, -0.066, 0.047, 0.326,
      -0.247, 0.148, -0.203, 0.102, -0.032, -0.211, -0.307, 0.063, -0.065,
      0.007, 0.068, -0.083, -0.001, -0.092, -0.16, 0.086, 0.0, -0.14, -0.177,
      0.334, -0.254, 0.147, 0.036, 0.393, 0.062, -0.188, 0.16, 0.007, 0.136,
      -0.055, 0.164, -0.119, 0.281, -0.191, 0.203, -0.27, -0.115, -0.18, -0.026,
      0.273, -0.143, -0.016, 0.045, 0.108, 0.127, -0.129, 0.097, -0.105, 0.206,
      -0.24, 0.354, -0.221, -0.08, -0.068, -0.118, 0.002, -0.161, 0.056, -0.008,
      0.326, -0.171, -0.192, -0.111, -0.086,
    ],
    [
      0.021, 0.001, -0.352, -0.046, -0.009, -0.035, -0.037, -0.067, 0.203,
      0.014, 0.058, 0.048, 0.036, -0.243, -0.174, 0.186, -0.001, 0.212, 0.084,
      -0.137, 0.063, -0.176, 0.001, -0.175, 0.005, -0.125, -0.186, 0.12, 0.065,
      -0.022, 0.128, 0.082, -0.04, 0.2, 0.266, 0.082, -0.017, -0.052, -0.064,
      -0.197, 0.018, 0.012, 0.049, -0.108, -0.101, -0.115, 0.165, 0.054, 0.006,
      0.135, 0.153, -0.035, -0.197, 0.035, -0.089, 0.021, 0.034, 0.146, 0.317,
      0.114, -0.096, -0.072, 0.092, -0.014, -0.059, 0.051, 0.187, -0.095, 0.136,
      -0.002, -0.009, 0.078, 0.253, -0.211, 0.032, 0.189, -0.189, 0.195, -0.072,
      0.04, -0.236, -0.295, 0.177, -0.101,
    ],
    [
      0.006, 0.078, 0.033, 0.089, 0.103, -0.213, 0.117, -0.022, -0.147, -0.066,
      -0.039, -0.088, 0.038, -0.131, 0.029, 0.028, 0.065, -0.092, -0.275, 0.058,
      -0.116, -0.155, 0.111, -0.072, 0.019, -0.056, -0.087, -0.21, 0.022,
      -0.021, 0.074, 0.141, 0.028, -0.145, -0.283, -0.037, 0.226, -0.149, 0.171,
      -0.053, 0.146, -0.17, 0.09, 0.185, 0.171, -0.007, -0.058, -0.146, 0.012,
      0.029, 0.253, -0.129, 0.117, 0.08, -0.302, 0.088, 0.137, -0.031, -0.023,
      -0.126, -0.073, -0.053, 0.211, -0.096, 0.022, -0.19, 0.169, -0.293, 0.177,
      -0.162, -0.051, -0.005, 0.24, -0.065, 0.108, 0.005, -0.056, 0.083, 0.032,
      0.207, -0.043, 0.073, 0.021, 0.032,
    ],
    [
      -0.108, 0.214, -0.097, 0.091, -0.089, -0.09, -0.103, -0.051, -0.005,
      -0.172, 0.091, 0.012, -0.079, -0.01, -0.146, 0.194, -0.008, -0.115,
      -0.016, -0.065, -0.109, -0.068, -0.019, -0.265, 0.125, 0.011, 0.102,
